{"learner":{"attributes":{"scikit_learn":"{\"_estimator_type\": \"classifier\"}"},"feature_names":[],"feature_types":[],"gradient_booster":{"model":{"cats":{"enc":[],"feature_segments":[],"sorted_idx":[]},"gbtree_model_param":{"num_parallel_tree":"1","num_trees":"500"},"iteration_indptr":[0,1,2,3,4,5,6,7,8,9,10,11,12,13,14,15,16,17,18,19,20,21,22,23,24,25,26,27,28,29,30,31,32,33,34,35,36,37,38,39,40,41,42,43,44,45,46,47,48,49,50,51,52,53,54,55,56,57,58,59,60,61,62,63,64,65,66,67,68,69,70,71,72,73,74,75,76,77,78,79,80,81,82,83,84,85,86,87,88,89,90,91,92,93,94,95,96,97,98,99,100,101,102,103,104,105,106,107,108,109,110,111,112,113,114,115,116,117,118,119,120,121,122,123,124,125,126,127,128,129,130,131,132,133,134,135,136,137,138,139,140,141,142,143,144,145,146,147,148,149,150,151,152,153,154,155,156,157,158,159,160,161,162,163,164,165,166,167,168,169,170,171,172,173,174,175,176,177,178,179,180,181,182,183,184,185,186,187,188,189,190,191,192,193,194,195,196,197,198,199,200,201,202,203,204,205,206,207,208,209,210,211,212,213,214,215,216,217,218,219,220,221,222,223,224,225,226,227,228,229,230,231,232,233,234,235,236,237,238,239,240,241,242,243,244,245,246,247,248,249,250,251,252,253,254,255,256,257,258,259,260,261,262,263,264,265,266,267,268,269,270,271,272,273,274,275,276,277,278,279,280,281,282,283,284,285,286,287,288,289,290,291,292,293,294,295,296,297,298,299,300,301,302,303,304,305,306,307,308,309,310,311,312,313,314,315,316,317,318,319,320,321,322,323,324,325,326,327,328,329,330,331,332,333,334,335,336,337,338,339,340,341,342,343,344,345,346,347,348,349,350,351,352,353,354,355,356,357,358,359,360,361,362,363,364,365,366,367,368,369,370,371,372,373,374,375,376,377,378,379,380,381,382,383,384,385,386,387,388,389,390,391,392,393,394,395,396,397,398,399,400,401,402,403,404,405,406,407,408,409,410,411,412,413,414,415,416,417,418,419,420,421,422,423,424,425,426,427,428,429,430,431,432,433,434,435,436,437,438,439,440,441,442,443,444,445,446,447,448,449,450,451,452,453,454,455,456,457,458,459,460,461,462,463,464,465,466,467,468,469,470,471,472,473,474,475,476,477,478,479,480,481,482,483,484,485,486,487,488,489,490,491,492,493,494,495,496,497,498,499,500],"tree_info":[0,0,0,0,0,0,0,0,0,0,0,0,0,0,0,0,0,0,0,0,0,0,0,0,0,0,0,0,0,0,0,0,0,0,0,0,0,0,0,0,0,0,0,0,0,0,0,0,0,0,0,0,0,0,0,0,0,0,0,0,0,0,0,0,0,0,0,0,0,0,0,0,0,0,0,0,0,0,0,0,0,0,0,0,0,0,0,0,0,0,0,0,0,0,0,0,0,0,0,0,0,0,0,0,0,0,0,0,0,0,0,0,0,0,0,0,0,0,0,0,0,0,0,0,0,0,0,0,0,0,0,0,0,0,0,0,0,0,0,0,0,0,0,0,0,0,0,0,0,0,0,0,0,0,0,0,0,0,0,0,0,0,0,0,0,0,0,0,0,0,0,0,0,0,0,0,0,0,0,0,0,0,0,0,0,0,0,0,0,0,0,0,0,0,0,0,0,0,0,0,0,0,0,0,0,0,0,0,0,0,0,0,0,0,0,0,0,0,0,0,0,0,0,0,0,0,0,0,0,0,0,0,0,0,0,0,0,0,0,0,0,0,0,0,0,0,0,0,0,0,0,0,0,0,0,0,0,0,0,0,0,0,0,0,0,0,0,0,0,0,0,0,0,0,0,0,0,0,0,0,0,0,0,0,0,0,0,0,0,0,0,0,0,0,0,0,0,0,0,0,0,0,0,0,0,0,0,0,0,0,0,0,0,0,0,0,0,0,0,0,0,0,0,0,0,0,0,0,0,0,0,0,0,0,0,0,0,0,0,0,0,0,0,0,0,0,0,0,0,0,0,0,0,0,0,0,0,0,0,0,0,0,0,0,0,0,0,0,0,0,0,0,0,0,0,0,0,0,0,0,0,0,0,0,0,0,0,0,0,0,0,0,0,0,0,0,0,0,0,0,0,0,0,0,0,0,0,0,0,0,0,0,0,0,0,0,0,0,0,0,0,0,0,0,0,0,0,0,0,0,0,0,0,0,0,0,0,0,0,0,0,0,0,0,0,0,0,0,0,0,0,0,0,0,0,0,0,0,0,0,0,0,0,0,0,0,0,0,0,0,0,0,0,0,0,0,0,0,0,0,0,0,0,0,0,0,0,0,0,0,0,0,0,0,0,0,0,0,0,0],"trees":[{"base_weights":[7.47971E-4,6.381747E-1,-9.545186E-1,9.817965E-1,-2.6457E-1,-5.5100024E-1,-1.388548E0,6.902705E-1,1.5058767E0,-9.174967E-1,-1.0537699E-1,-8.623284E-1,1.4518914E-1,-1.1617727E0,-1.5683624E0,-8.322438E-2,8.6743915E-1,9.790775E-1,1.6954008E0,-1.1445867E0,-7.171475E-1,-1.0537525E0,-5.6183286E-2,-1.2207645E0,-6.247969E-1,-2.4620824E-1,4.147994E-1,-8.543221E-1,-1.3983873E0,-1.341956E0,-1.7153308E0,1.7019492E-1,-4.1461518E-1,2.7818435E-1,9.9961925E-1,7.062369E-1,1.1394325E0,1.3517011E0,1.7536792E0,-9.8979574E-1,-1.3352523E0,1.259012E-1,-7.809197E-1,-8.6628616E-1,-1.6368958E0,-4.9988756E-1,3.9090876E-2,-1.0094712E0,-1.5136087E0,-4.210244E-1,-1.0047675E0,1.8146493E-2,-7.4857605E-1,6.6780734E-1,-5.37458E-3,-4.3331808E-1,-1.3333772E0,-1.2625475E0,-1.6186428E0,-1.5247558E0,-9.5800745E-1,-1.6077012E0,-1.8126018E0,5.1648732E-2,2.6512404E-3,-7.1385237E-3,-3.8506746E-2,1.885789E-2,-3.5382144E-3,5.5624466E-2,3.163179E-2,4.891331E-2,1.8707994E-2,6.5653615E-2,4.180168E-2,7.6873705E-2,5.6082826E-2,9.002417E-2,6.798714E-2,-4.1902214E-2,-7.7828765E-2,-6.1123557E-2,-7.4010305E-2,1.580553E-2,-3.3665355E-2,-6.493723E-2,-3.5992723E-2,-6.6050015E-2,-3.39451E-2,-8.8866405E-2,-7.140722E-2,-2.3681665E-2,-6.573682E-2,-1.4456704E-2,6.161499E-3,-4.1586526E-2,-7.825558E-2,-6.647265E-2,-8.062335E-2,-9.986163E-3,-3.5359662E-2,-4.3504786E-2,-5.896541E-2,7.1888077E-3,-4.8577383E-2,-2.2652691E-2,-5.4102477E-2,4.249083E-2,1.8556403E-2,1.9594302E-2,-1.27312485E-2,-3.5461303E-2,-3.8855483E-3,-5.593846E-2,-8.443377E-2,-5.2567955E-2,-7.944264E-2,-7.449668E-2,-8.655565E-2,-8.420717E-2,-7.060847E-2,-6.176437E-2,-3.6989145E-2,-8.528163E-2,-7.140192E-2,-8.870539E-2,-9.276799E-2],"categories":[],"categories_nodes":[],"categories_segments":[],"categories_sizes":[],"default_left":[0,0,0,0,0,0,0,0,0,0,0,0,0,0,0,0,0,0,0,0,0,0,0,0,0,0,0,0,0,0,0,0,0,0,0,0,0,0,0,0,0,0,0,0,0,0,0,0,0,0,0,0,0,0,0,0,0,0,0,0,0,0,0,0,0,0,0,0,0,0,0,0,0,0,0,0,0,0,0,0,0,0,0,0,0,0,0,0,0,0,0,0,0,0,0,0,0,0,0,0,0,0,0,0,0,0,0,0,0,0,0,0,0,0,0,0,0,0,0,0,0,0,0,0,0,0,0],"id":0,"left_children":[1,3,5,7,9,11,13,15,17,19,21,23,25,27,29,31,33,35,37,39,41,43,45,47,49,51,53,55,57,59,61,63,65,67,69,71,73,75,77,79,81,83,85,87,89,91,93,95,97,99,101,103,105,107,109,111,113,115,117,119,121,123,125,-1,-1,-1,-1,-1,-1,-1,-1,-1,-1,-1,-1,-1,-1,-1,-1,-1,-1,-1,-1,-1,-1,-1,-1,-1,-1,-1,-1,-1,-1,-1,-1,-1,-1,-1,-1,-1,-1,-1,-1,-1,-1,-1,-1,-1,-1,-1,-1,-1,-1,-1,-1,-1,-1,-1,-1,-1,-1,-1,-1,-1,-1,-1,-1],"loss_changes":[7.812887E4,2.3872588E4,8.99291E3,8.515145E3,2.205309E3,5.768283E3,1.0070039E3,4.908633E3,1.9874453E3,1.8840308E2,7.958493E2,1.564916E3,8.679762E2,7.950303E2,4.5675E2,5.6074286E2,2.2696406E3,2.2991797E2,2.9107812E2,5.6162354E1,1.1903711E2,9.054413E1,6.8567773E2,4.5191992E2,8.560913E2,4.4559033E2,5.17742E2,9.599612E2,1.8296289E2,3.7999414E2,8.462695E1,3.82464E2,2.7951898E2,1.8448718E2,9.8526953E2,1.7621222E2,1.737959E2,8.923193E1,2.2844531E2,9.148828E1,1.2411133E1,2.3994339E1,6.410474E1,5.3524567E1,3.4279785E0,6.0715454E1,3.6881E2,4.1940576E2,5.373633E1,4.5597656E2,8.972583E1,2.7359296E2,1.1351434E2,1.6382874E2,1.8144054E2,2.4879971E2,1.6793652E2,2.6220703E2,3.1515625E1,6.3663086E1,1.0532092E2,6.756348E1,3.9248047E0,0E0,0E0,0E0,0E0,0E0,0E0,0E0,0E0,0E0,0E0,0E0,0E0,0E0,0E0,0E0,0E0,0E0,0E0,0E0,0E0,0E0,0E0,0E0,0E0,0E0,0E0,0E0,0E0,0E0,0E0,0E0,0E0,0E0,0E0,0E0,0E0,0E0,0E0,0E0,0E0,0E0,0E0,0E0,0E0,0E0,0E0,0E0,0E0,0E0,0E0,0E0,0E0,0E0,0E0,0E0,0E0,0E0,0E0,0E0,0E0,0E0,0E0,0E0,0E0],"parents":[2147483647,0,0,1,1,2,2,3,3,4,4,5,5,6,6,7,7,8,8,9,9,10,10,11,11,12,12,13,13,14,14,15,15,16,16,17,17,18,18,19,19,20,20,21,21,22,22,23,23,24,24,25,25,26,26,27,27,28,28,29,29,30,30,31,31,32,32,33,33,34,34,35,35,36,36,37,37,38,38,39,39,40,40,41,41,42,42,43,43,44,44,45,45,46,46,47,47,48,48,49,49,50,50,51,51,52,52,53,53,54,54,55,55,56,56,57,57,58,58,59,59,60,60,61,61,62,62],"right_children":[2,4,6,8,10,12,14,16,18,20,22,24,26,28,30,32,34,36,38,40,42,44,46,48,50,52,54,56,58,60,62,64,66,68,70,72,74,76,78,80,82,84,86,88,90,92,94,96,98,100,102,104,106,108,110,112,114,116,118,120,122,124,126,-1,-1,-1,-1,-1,-1,-1,-1,-1,-1,-1,-1,-1,-1,-1,-1,-1,-1,-1,-1,-1,-1,-1,-1,-1,-1,-1,-1,-1,-1,-1,-1,-1,-1,-1,-1,-1,-1,-1,-1,-1,-1,-1,-1,-1,-1,-1,-1,-1,-1,-1,-1,-1,-1,-1,-1,-1,-1,-1,-1,-1,-1,-1,-1],"split_conditions":[2.2E-1,1E0,6.3E-1,1E0,-5.9E-1,1E0,3.2E-1,-6E-1,1E0,1E0,1.42E0,-6.6E-1,-6.7E-1,9.501579E-1,8.405355E-1,3E-2,1E0,-6.5E-1,-5.8E-1,9.13E1,1.824E3,3.14E0,1E0,9.08E1,1E0,9.19E1,6E-1,-6.1E-1,1.45E0,1E0,1.1016351E0,1.854E3,9.08E1,1E0,1E0,8.98E1,6.1E-1,9.11E1,6E-1,2.86E0,8.5E-1,2.86E0,-3.4E-1,8.47E1,1.4E0,1.82E0,9E-2,2.69E0,3.330165E-1,4.1012195E-1,4.1012195E-1,3.03E0,4.1E-1,4.5E-1,3.6E-1,1E0,2.37E0,-8.7E-1,-2.3E-1,-6.3E-1,-6.4E-1,1E0,1.4E0,5.1648732E-2,2.6512404E-3,-7.1385237E-3,-3.8506746E-2,1.885789E-2,-3.5382144E-3,5.5624466E-2,3.163179E-2,4.891331E-2,1.8707994E-2,6.5653615E-2,4.180168E-2,7.6873705E-2,5.6082826E-2,9.002417E-2,6.798714E-2,-4.1902214E-2,-7.7828765E-2,-6.1123557E-2,-7.4010305E-2,1.580553E-2,-3.3665355E-2,-6.493723E-2,-3.5992723E-2,-6.6050015E-2,-3.39451E-2,-8.8866405E-2,-7.140722E-2,-2.3681665E-2,-6.573682E-2,-1.4456704E-2,6.161499E-3,-4.1586526E-2,-7.825558E-2,-6.647265E-2,-8.062335E-2,-9.986163E-3,-3.5359662E-2,-4.3504786E-2,-5.896541E-2,7.1888077E-3,-4.8577383E-2,-2.2652691E-2,-5.4102477E-2,4.249083E-2,1.8556403E-2,1.9594302E-2,-1.27312485E-2,-3.5461303E-2,-3.8855483E-3,-5.593846E-2,-8.443377E-2,-5.2567955E-2,-7.944264E-2,-7.449668E-2,-8.655565E-2,-8.420717E-2,-7.060847E-2,-6.176437E-2,-3.6989145E-2,-8.528163E-2,-7.140192E-2,-8.870539E-2,-9.276799E-2],"split_indices":[44,4,44,39,34,39,27,34,40,40,29,34,34,44,44,44,40,34,34,25,26,30,40,25,4,25,34,43,44,39,44,26,25,7,7,25,34,25,34,28,35,28,27,25,29,29,27,28,44,44,44,28,44,44,44,39,28,43,27,34,34,39,44,0,0,0,0,0,0,0,0,0,0,0,0,0,0,0,0,0,0,0,0,0,0,0,0,0,0,0,0,0,0,0,0,0,0,0,0,0,0,0,0,0,0,0,0,0,0,0,0,0,0,0,0,0,0,0,0,0,0,0,0,0,0,0,0],"split_type":[0,0,0,0,0,0,0,0,0,0,0,0,0,0,0,0,0,0,0,0,0,0,0,0,0,0,0,0,0,0,0,0,0,0,0,0,0,0,0,0,0,0,0,0,0,0,0,0,0,0,0,0,0,0,0,0,0,0,0,0,0,0,0,0,0,0,0,0,0,0,0,0,0,0,0,0,0,0,0,0,0,0,0,0,0,0,0,0,0,0,0,0,0,0,0,0,0,0,0,0,0,0,0,0,0,0,0,0,0,0,0,0,0,0,0,0,0,0,0,0,0,0,0,0,0,0,0],"sum_hessian":[1.2830686E5,7.695617E4,5.1350695E4,5.573938E4,2.121679E4,2.6611848E4,2.4738848E4,3.581767E4,1.9921707E4,4.1580156E3,1.7058773E4,1.8388482E4,8.223365E3,1.0944061E4,1.3794787E4,6.6751943E3,2.9142477E4,5.272499E3,1.4649208E4,1.9467344E3,2.211281E3,8.4022205E2,1.6218552E4,7.3273438E3,1.1061139E4,3.3541624E3,4.8692026E3,4.7615903E3,6.1824697E3,5.4339175E3,8.360869E3,3.7828674E3,2.8923267E3,5.340006E3,2.380247E4,1.9537094E3,3.3187898E3,2.1273335E3,1.2521874E4,1.0778656E3,8.688688E2,1.5543983E2,2.0558413E3,6.377019E2,2.0252017E2,2.866171E3,1.3352381E4,4.258902E3,3.0684421E3,7.2012983E3,3.85984E3,2.1983276E3,1.1558346E3,3.0387988E3,1.8304037E3,2.535363E3,2.2262273E3,3.828204E3,2.3542659E3,3.679241E3,1.7546765E3,3.9774163E3,4.383453E3,4.5137335E2,3.3314941E3,1.6398405E3,1.2524863E3,4.1600083E3,1.1799976E3,1.8202154E4,5.600318E3,1.0728835E3,8.808257E2,2.108651E3,1.2101389E3,1.17377E3,9.535636E2,1.1188928E4,1.3329464E3,8.5217896E2,2.2568668E2,4.9396985E2,3.7489896E2,1.2604576E2,2.9394072E1,2.1472618E2,1.8411151E3,1.843357E2,4.5336618E2,1.1657987E2,8.594029E1,2.7782378E3,8.793311E1,2.7239336E3,1.0628447E4,3.2286147E3,1.0302871E3,1.0768693E3,1.9915729E3,4.061862E3,3.1394363E3,2.182136E3,1.677704E3,1.9514674E3,2.4686037E2,6.140372E2,5.417975E2,1.8822169E3,1.1565819E3,7.054577E2,1.1249459E3,1.427107E3,1.1082561E3,1.390489E3,8.357382E2,2.3266155E3,1.5015886E3,1.1045195E3,1.2497462E3,1.5172821E3,2.1619587E3,7.707225E2,9.8395404E2,2.568743E3,1.4086735E3,2.3291064E3,2.0543467E3],"tree_param":{"num_deleted":"0","num_feature":"52","num_nodes":"127","size_leaf_vector":"1"}},{"base_weights":[-7.32211E-4,6.0270643E-1,-9.0834886E-1,-1.0590178E-1,1.1464909E0,-4.9806136E-1,-1.2987133E0,-6.9618434E-1,7.169579E-2,5.7227314E-1,1.3439162E0,-1.0764455E0,-1.4622867E-1,-1.0720729E0,-1.4907005E0,-9.821816E-1,-4.9992537E-1,1.16451316E-1,-1.4020401E0,2.5739747E-1,9.192039E-1,1.1281914E0,1.6047438E0,-1.3649833E0,-8.6272794E-1,2.2748221E-1,-4.48792E-1,-1.2938014E0,-6.6649705E-1,-1.3062582E0,-1.6611574E0,-8.461456E-1,-1.2257347E0,2.1918797E-1,-5.675081E-1,4.9090353E-1,-8.58111E-2,-1.7367845E0,-1.2761304E0,-1.3843033E-1,5.086132E-1,1.1201115E0,6.7417E-1,5.8535683E-1,1.2513094E0,1.2748078E0,1.660489E0,-1.2033702E0,-1.55871E0,-6.756063E-1,-1.0299035E0,-1.1537621E-1,5.522205E-1,-7.242886E-1,-1.5515102E-1,-9.586754E-1,-1.4747726E0,-3.015703E-1,-9.4214076E-1,-1.0208718E0,-1.4737068E0,-1.5574211E0,-1.7320213E0,-3.4859266E-2,-7.067785E-2,-7.481969E-2,-5.5282325E-2,1.84819E-2,-3.791485E-2,-3.3785798E-2,-1.054237E-2,-5.3939684E-3,3.0874053E-2,-5.045051E-2,-1.8960309E-3,-9.158042E-2,-7.56638E-2,-7.409238E-2,-5.6297075E-2,5.876077E-3,-2.5625676E-2,3.27856E-2,1.4790348E-2,4.1312736E-2,6.1354943E-2,4.4879284E-2,2.1090567E-2,6.100585E-2,2.4435943E-2,4.4525698E-2,6.7212746E-2,7.2395496E-2,5.2982587E-2,7.059447E-2,8.660898E-2,-5.1652193E-2,-8.101048E-2,-7.310164E-2,-8.292483E-2,-3.845595E-2,-1.9690162E-2,-4.005501E-2,-5.8534022E-2,1.0664929E-2,-1.6163236E-2,3.6873378E-2,1.616804E-2,-2.8786907E-2,-5.628385E-2,3.6020488E-3,-2.6051933E-2,-3.538627E-2,-7.4734986E-2,-7.95626E-2,-6.659461E-2,5.7511623E-3,-3.1043053E-2,-3.647909E-2,-6.8420194E-2,-4.157083E-2,-6.533531E-2,-6.975613E-2,-8.3976105E-2,-8.22735E-2,-6.986142E-2,-8.333915E-2,-8.782443E-2],"categories":[],"categories_nodes":[],"categories_segments":[],"categories_sizes":[],"default_left":[0,0,0,0,0,0,0,0,0,0,0,0,0,0,0,0,0,0,0,0,0,0,0,0,0,0,0,0,0,0,0,0,0,0,0,0,0,0,0,0,0,0,0,0,0,0,0,0,0,0,0,0,0,0,0,0,0,0,0,0,0,0,0,0,0,0,0,0,0,0,0,0,0,0,0,0,0,0,0,0,0,0,0,0,0,0,0,0,0,0,0,0,0,0,0,0,0,0,0,0,0,0,0,0,0,0,0,0,0,0,0,0,0,0,0,0,0,0,0,0,0,0,0,0,0,0,0],"id":1,"left_children":[1,3,5,7,9,11,13,15,17,19,21,23,25,27,29,31,33,35,37,39,41,43,45,47,49,51,53,55,57,59,61,63,65,67,69,71,73,75,77,79,81,83,85,87,89,91,93,95,97,99,101,103,105,107,109,111,113,115,117,119,121,123,125,-1,-1,-1,-1,-1,-1,-1,-1,-1,-1,-1,-1,-1,-1,-1,-1,-1,-1,-1,-1,-1,-1,-1,-1,-1,-1,-1,-1,-1,-1,-1,-1,-1,-1,-1,-1,-1,-1,-1,-1,-1,-1,-1,-1,-1,-1,-1,-1,-1,-1,-1,-1,-1,-1,-1,-1,-1,-1,-1,-1,-1,-1,-1,-1],"loss_changes":[7.027202E4,2.9696396E4,8.205855E3,3.5080864E3,4.942508E3,5.083858E3,1.1408711E3,4.3392676E2,1.6969036E3,1.2186729E3,1.8239297E3,5.8151855E2,1.7566943E3,1.0823164E3,4.4465625E2,1.03283936E2,2.232893E2,1.8910092E3,2.9743164E1,5.8184906E2,2.605747E2,1.1864043E3,2.679922E2,1.2395703E2,1.6920361E2,7.739944E2,6.9440247E2,4.708213E2,4.2817944E2,3.2492383E2,5.157422E1,1.7004224E2,3.4949463E1,5.8399178E1,1.6186133E2,6.637488E2,7.167242E2,1.5621338E0,1.5472534E1,2.1762807E2,1.1185211E2,9.064087E1,1.3460217E2,2.009596E2,4.8431055E2,7.768286E1,2.2140234E2,1.5420752E2,1.5177246E1,6.730664E1,9.1394775E1,2.3115631E2,1.5111633E2,2.6344702E2,3.4559595E2,3.6660132E2,8.199609E1,2.4407065E2,2.1882397E2,1.3587378E2,6.724609E1,4.010254E1,4.060547E0,0E0,0E0,0E0,0E0,0E0,0E0,0E0,0E0,0E0,0E0,0E0,0E0,0E0,0E0,0E0,0E0,0E0,0E0,0E0,0E0,0E0,0E0,0E0,0E0,0E0,0E0,0E0,0E0,0E0,0E0,0E0,0E0,0E0,0E0,0E0,0E0,0E0,0E0,0E0,0E0,0E0,0E0,0E0,0E0,0E0,0E0,0E0,0E0,0E0,0E0,0E0,0E0,0E0,0E0,0E0,0E0,0E0,0E0,0E0,0E0,0E0,0E0,0E0,0E0],"parents":[2147483647,0,0,1,1,2,2,3,3,4,4,5,5,6,6,7,7,8,8,9,9,10,10,11,11,12,12,13,13,14,14,15,15,16,16,17,17,18,18,19,19,20,20,21,21,22,22,23,23,24,24,25,25,26,26,27,27,28,28,29,29,30,30,31,31,32,32,33,33,34,34,35,35,36,36,37,37,38,38,39,39,40,40,41,41,42,42,43,43,44,44,45,45,46,46,47,47,48,48,49,49,50,50,51,51,52,52,53,53,54,54,55,55,56,56,57,57,58,58,59,59,60,60,61,61,62,62],"right_children":[2,4,6,8,10,12,14,16,18,20,22,24,26,28,30,32,34,36,38,40,42,44,46,48,50,52,54,56,58,60,62,64,66,68,70,72,74,76,78,80,82,84,86,88,90,92,94,96,98,100,102,104,106,108,110,112,114,116,118,120,122,124,126,-1,-1,-1,-1,-1,-1,-1,-1,-1,-1,-1,-1,-1,-1,-1,-1,-1,-1,-1,-1,-1,-1,-1,-1,-1,-1,-1,-1,-1,-1,-1,-1,-1,-1,-1,-1,-1,-1,-1,-1,-1,-1,-1,-1,-1,-1,-1,-1,-1,-1,-1,-1,-1,-1,-1,-1,-1,-1,-1,-1,-1,-1,-1,-1],"split_conditions":[2.2E-1,1E0,5.903389E-1,-5.2E-1,1E0,1E0,8.9810914E-1,1E0,1E0,2E0,2E0,-5.6E-1,1E-2,2E0,3.2E-1,1.02E0,1.854E3,1E0,-1E0,-5.6E-1,3E-2,-5.1E-1,-5.8E-1,2.4E0,3.7E-1,2E0,2E0,-5.4E-1,1E-2,1.1E-1,1.1016351E0,2.84E0,2.19E0,2.94E0,1E0,1E0,1.42E0,-2E0,3.31E0,9.08E1,1.3E-1,-4.6E-1,9.06E1,1.881E3,1.96E0,9.11E1,2E0,9E-1,3.09E0,1E0,4.8E-1,3.8E-1,4.1E-1,1.08E0,9.19E1,5.7E-1,1E0,3.3E-1,9.14E1,1.3059862E0,1.6274213E0,2E0,5.9E-1,-3.4859266E-2,-7.067785E-2,-7.481969E-2,-5.5282325E-2,1.84819E-2,-3.791485E-2,-3.3785798E-2,-1.054237E-2,-5.3939684E-3,3.0874053E-2,-5.045051E-2,-1.8960309E-3,-9.158042E-2,-7.56638E-2,-7.409238E-2,-5.6297075E-2,5.876077E-3,-2.5625676E-2,3.27856E-2,1.4790348E-2,4.1312736E-2,6.1354943E-2,4.4879284E-2,2.1090567E-2,6.100585E-2,2.4435943E-2,4.4525698E-2,6.7212746E-2,7.2395496E-2,5.2982587E-2,7.059447E-2,8.660898E-2,-5.1652193E-2,-8.101048E-2,-7.310164E-2,-8.292483E-2,-3.845595E-2,-1.9690162E-2,-4.005501E-2,-5.8534022E-2,1.0664929E-2,-1.6163236E-2,3.6873378E-2,1.616804E-2,-2.8786907E-2,-5.628385E-2,3.6020488E-3,-2.6051933E-2,-3.538627E-2,-7.4734986E-2,-7.95626E-2,-6.659461E-2,5.7511623E-3,-3.1043053E-2,-3.647909E-2,-6.8420194E-2,-4.157083E-2,-6.533531E-2,-6.975613E-2,-8.3976105E-2,-8.22735E-2,-6.986142E-2,-8.333915E-2,-8.782443E-2],"split_indices":[44,32,44,34,40,32,44,40,13,32,32,34,41,32,27,27,26,4,51,34,41,34,34,28,44,32,32,43,41,41,44,28,28,28,7,40,29,51,30,25,44,34,25,26,28,25,28,27,28,7,27,27,44,27,25,27,32,27,25,44,44,32,27,0,0,0,0,0,0,0,0,0,0,0,0,0,0,0,0,0,0,0,0,0,0,0,0,0,0,0,0,0,0,0,0,0,0,0,0,0,0,0,0,0,0,0,0,0,0,0,0,0,0,0,0,0,0,0,0,0,0,0,0,0,0,0,0],"split_type":[0,0,0,0,0,0,0,0,0,0,0,0,0,0,0,0,0,0,0,0,0,0,0,0,0,0,0,0,0,0,0,0,0,0,0,0,0,0,0,0,0,0,0,0,0,0,0,0,0,0,0,0,0,0,0,0,0,0,0,0,0,0,0,0,0,0,0,0,0,0,0,0,0,0,0,0,0,0,0,0,0,0,0,0,0,0,0,0,0,0,0,0,0,0,0,0,0,0,0,0,0,0,0,0,0,0,0,0,0,0,0,0,0,0,0,0,0,0,0,0,0,0,0,0,0,0,0],"sum_hessian":[1.2830398E5,7.706609E4,5.123788E4,3.3462176E4,4.3603918E4,2.4982562E4,2.6255318E4,7.738555E3,2.5723621E4,1.1157084E4,3.2446834E4,9.448289E3,1.5534272E4,1.2043991E4,1.4211326E4,3.147652E3,4.590903E3,2.4966346E4,7.5727594E2,5.8496562E3,5.307428E3,1.7761775E4,1.4685059E4,4.0181023E3,5.430187E3,6.950104E3,8.584168E3,7.785478E3,4.2585137E3,6.8298135E3,7.381513E3,2.0224767E3,1.1251755E3,3.9419818E2,4.1967046E3,8.755569E3,1.6210777E4,2.034879E2,5.53788E2,2.2713132E3,3.5783428E3,2.9143389E3,2.393089E3,3.2847737E3,1.4477001E4,2.1259824E3,1.2559076E4,2.1945486E3,1.8235537E3,2.5646194E3,2.8655676E3,3.3810447E3,3.5690596E3,4.4281616E3,4.1560063E3,2.7322124E3,5.0532656E3,1.8333812E3,2.4251323E3,2.5281414E3,4.301672E3,3.0052166E3,4.3762964E3,1.603694E3,4.1878262E2,3.4227756E2,7.82898E2,3.421568E2,5.2041367E1,3.2191484E3,9.775564E2,1.5278981E3,7.227671E3,7.984647E2,1.54123125E4,1.3782188E2,6.5666016E1,2.2995175E2,3.2383624E2,1.348999E3,9.223143E2,2.1145886E3,1.4637542E3,7.8018036E2,2.1341587E3,1.2679783E3,1.1251108E3,4.3247375E2,2.8522998E3,2.9676753E3,1.1509326E4,1.1749539E3,9.510286E2,2.815734E3,9.743342E3,1.5604181E3,6.341305E2,9.3415753E2,8.893961E2,1.9243275E3,6.4029193E2,1.0940721E3,1.7714955E3,1.309957E3,2.0710876E3,1.9712439E3,1.5978156E3,3.233796E3,1.1943657E3,2.5644536E3,1.5915529E3,1.8625461E3,8.696662E2,2.7782446E3,2.2750212E3,7.957582E2,1.037623E3,1.6200133E3,8.051191E2,1.52275E3,1.0053914E3,3.1186782E3,1.1829938E3,1.9333129E3,1.0719038E3,1.2124912E3,3.163805E3],"tree_param":{"num_deleted":"0","num_feature":"52","num_nodes":"127","size_leaf_vector":"1"}},{"base_weights":[1.3154863E-3,5.52801E-1,-9.0168107E-1,-1.1624746E-1,1.0630631E0,-5.608551E-1,-1.3047538E0,-6.3745457E-1,5.821208E-2,5.110024E-1,1.2772691E0,-8.4045184E-1,4.7424495E-2,-1.0961987E0,-1.4756279E0,-7.360032E-1,-3.386483E-1,1.0055628E-1,-1.3362147E0,2.0580912E-1,8.473759E-1,1.0710977E0,1.5271915E0,-1.0911424E0,-5.413974E-1,4.2363957E-1,-2.693181E-1,-7.73849E-1,-1.3305885E0,-1.3330398E0,-1.629947E0,-7.072198E-1,-1.5480422E0,-1.0727967E0,-3.0556178E-1,4.6103188E-1,-9.326687E-2,-8.7340824E-2,-1.2466544E0,3.9075378E-1,6.2352787E-3,1.0262088E0,6.1104107E-1,6.6789275E-1,1.1360463E0,1.300977E0,1.5989863E0,-9.034877E-1,-1.2232834E0,-2.2478892E-1,-7.801898E-1,6.0264045E-1,1.06006496E-1,-5.150402E-2,-6.4241415E-1,-5.204415E-1,-1.1115475E0,-1.1939542E0,-1.5021485E0,-1.4620515E0,-1.0783913E0,-1.5583817E0,-1.6781831E0,-3.0853266E-2,-4.448658E-2,-1.5039319E-2,-7.775658E-2,-5.703795E-2,2.3540996E-3,-1.0563371E-2,-2.3659866E-2,-2.87206E-2,2.5376841E-2,-4.591464E-2,-2.0636714E-3,-8.136503E-2,-5.81921E-2,2.9400004E-2,1.0621607E-2,8.684242E-3,-7.194724E-3,3.682145E-2,5.639131E-2,4.2507198E-2,1.8372139E-2,4.6318457E-2,-1.4352903E-2,5.7380933E-2,-1.6884618E-2,7.79673E-2,3.4745455E-2,8.019526E-2,1.6076086E-2,-3.0397294E-2,-5.393962E-2,-5.5951823E-2,-7.183807E-2,6.843179E-3,-2.3002453E-2,-3.1867728E-2,-5.9087653E-2,6.651394E-3,3.4425143E-2,1.0507881E-2,-2.362176E-2,2.9574544E-3,-4.5397732E-2,-1.4735256E-2,-4.514463E-2,-2.0445436E-2,-8.1921294E-2,-4.947532E-2,-6.701436E-2,-5.651517E-2,-8.4374785E-2,-7.090159E-2,-8.1191994E-2,-7.80962E-2,-6.715507E-2,-4.2477693E-2,-6.287106E-2,-8.147175E-2,-7.156824E-2,-8.189935E-2,-8.5321575E-2],"categories":[],"categories_nodes":[],"categories_segments":[],"categories_sizes":[],"default_left":[0,0,0,0,0,0,0,0,0,0,0,0,0,0,0,0,0,0,0,0,0,0,0,0,0,0,0,0,0,0,0,0,0,0,0,0,0,0,0,0,0,0,0,0,0,0,0,0,0,0,0,0,0,0,0,0,0,0,0,0,0,0,0,0,0,0,0,0,0,0,0,0,0,0,0,0,0,0,0,0,0,0,0,0,0,0,0,0,0,0,0,0,0,0,0,0,0,0,0,0,0,0,0,0,0,0,0,0,0,0,0,0,0,0,0,0,0,0,0,0,0,0,0,0,0],"id":2,"left_children":[1,3,5,7,9,11,13,15,17,19,21,23,25,27,29,31,33,35,37,39,41,43,45,47,49,51,53,55,57,59,61,63,65,67,69,71,73,-1,75,77,79,81,83,85,87,89,91,93,95,97,99,101,103,105,107,109,111,113,115,117,119,121,123,-1,-1,-1,-1,-1,-1,-1,-1,-1,-1,-1,-1,-1,-1,-1,-1,-1,-1,-1,-1,-1,-1,-1,-1,-1,-1,-1,-1,-1,-1,-1,-1,-1,-1,-1,-1,-1,-1,-1,-1,-1,-1,-1,-1,-1,-1,-1,-1,-1,-1,-1,-1,-1,-1,-1,-1,-1,-1,-1,-1,-1,-1],"loss_changes":[6.373856E4,2.712767E4,6.666168E3,3.1264128E3,5.3303555E3,4.47245E3,7.9071484E2,2.5365771E2,1.5212086E3,1.2937119E3,1.6718477E3,1.3500713E3,9.870256E2,7.5578906E2,2.6667383E2,1.5043823E2,5.166185E1,1.7469373E3,2.574414E1,2.4395343E2,2.5275977E2,4.653789E2,2.363164E2,2.418916E2,6.2109814E2,2.1519476E2,3.6541916E2,3.6050513E2,1.3412305E2,2.0722949E2,1.7624023E1,1.0250513E2,1.4872437E0,7.048355E0,3.2295624E1,4.2129028E2,6.974801E2,0E0,1.7864868E1,1.2053516E2,7.996792E1,9.9622314E1,1.5024683E2,6.104066E2,2.618203E2,5.535122E2,6.947656E1,2.0933008E2,1.26299805E2,3.0078586E2,2.679099E2,9.7536316E1,8.238191E1,2.6924152E2,1.4985907E2,3.0014484E2,4.9145508E1,9.964111E1,2.3971191E1,4.7984375E1,8.664819E1,1.9099121E1,1.1669922E0,0E0,0E0,0E0,0E0,0E0,0E0,0E0,0E0,0E0,0E0,0E0,0E0,0E0,0E0,0E0,0E0,0E0,0E0,0E0,0E0,0E0,0E0,0E0,0E0,0E0,0E0,0E0,0E0,0E0,0E0,0E0,0E0,0E0,0E0,0E0,0E0,0E0,0E0,0E0,0E0,0E0,0E0,0E0,0E0,0E0,0E0,0E0,0E0,0E0,0E0,0E0,0E0,0E0,0E0,0E0,0E0,0E0,0E0,0E0,0E0,0E0,0E0],"parents":[2147483647,0,0,1,1,2,2,3,3,4,4,5,5,6,6,7,7,8,8,9,9,10,10,11,11,12,12,13,13,14,14,15,15,16,16,17,17,18,18,19,19,20,20,21,21,22,22,23,23,24,24,25,25,26,26,27,27,28,28,29,29,30,30,31,31,32,32,33,33,34,34,35,35,36,36,38,38,39,39,40,40,41,41,42,42,43,43,44,44,45,45,46,46,47,47,48,48,49,49,50,50,51,51,52,52,53,53,54,54,55,55,56,56,57,57,58,58,59,59,60,60,61,61,62,62],"right_children":[2,4,6,8,10,12,14,16,18,20,22,24,26,28,30,32,34,36,38,40,42,44,46,48,50,52,54,56,58,60,62,64,66,68,70,72,74,-1,76,78,80,82,84,86,88,90,92,94,96,98,100,102,104,106,108,110,112,114,116,118,120,122,124,-1,-1,-1,-1,-1,-1,-1,-1,-1,-1,-1,-1,-1,-1,-1,-1,-1,-1,-1,-1,-1,-1,-1,-1,-1,-1,-1,-1,-1,-1,-1,-1,-1,-1,-1,-1,-1,-1,-1,-1,-1,-1,-1,-1,-1,-1,-1,-1,-1,-1,-1,-1,-1,-1,-1,-1,-1,-1,-1,-1,-1,-1],"split_conditions":[2.5E-1,1E0,6.718631E-1,1E0,1E0,2E0,3.2E-1,1E0,1E0,2E0,2E0,1E0,1E-2,1.8E-1,9.84124E-1,1E0,1.41E0,1E0,-2E0,1.3E-1,4E-2,1.85E0,2.02E0,1E-2,1E-2,5E-1,9.19E1,1.08E0,8.4E-1,2E0,1.19E0,9E-2,7.93E1,2.7E0,9.8E-1,1.42E0,1.43E0,-8.7340824E-2,1.48E0,1E-2,1E-2,-1.2E-1,9.01E1,9.8E-1,1.85E0,9.15E1,1.86E0,4.2E-1,1.02E0,3.8E-1,1.08E0,1.16E0,3.97E0,3.03E0,4E-1,1.12E0,-3E-2,2.74E0,1.18E0,1E0,1E-2,2E0,1.4E0,-3.0853266E-2,-4.448658E-2,-1.5039319E-2,-7.775658E-2,-5.703795E-2,2.3540996E-3,-1.0563371E-2,-2.3659866E-2,-2.87206E-2,2.5376841E-2,-4.591464E-2,-2.0636714E-3,-8.136503E-2,-5.81921E-2,2.9400004E-2,1.0621607E-2,8.684242E-3,-7.194724E-3,3.682145E-2,5.639131E-2,4.2507198E-2,1.8372139E-2,4.6318457E-2,-1.4352903E-2,5.7380933E-2,-1.6884618E-2,7.79673E-2,3.4745455E-2,8.019526E-2,1.6076086E-2,-3.0397294E-2,-5.393962E-2,-5.5951823E-2,-7.183807E-2,6.843179E-3,-2.3002453E-2,-3.1867728E-2,-5.9087653E-2,6.651394E-3,3.4425143E-2,1.0507881E-2,-2.362176E-2,2.9574544E-3,-4.5397732E-2,-1.4735256E-2,-4.514463E-2,-2.0445436E-2,-8.1921294E-2,-4.947532E-2,-6.701436E-2,-5.651517E-2,-8.4374785E-2,-7.090159E-2,-8.1191994E-2,-7.80962E-2,-6.715507E-2,-4.2477693E-2,-6.287106E-2,-8.147175E-2,-7.156824E-2,-8.189935E-2,-8.5321575E-2],"split_indices":[44,32,44,40,40,32,27,7,13,32,32,32,41,41,44,13,29,4,51,44,41,28,28,41,41,44,25,44,41,32,44,41,25,35,27,29,29,0,29,41,41,43,25,27,29,25,29,27,27,27,27,28,28,28,44,28,27,28,41,32,41,32,44,0,0,0,0,0,0,0,0,0,0,0,0,0,0,0,0,0,0,0,0,0,0,0,0,0,0,0,0,0,0,0,0,0,0,0,0,0,0,0,0,0,0,0,0,0,0,0,0,0,0,0,0,0,0,0,0,0,0,0,0,0,0],"split_type":[0,0,0,0,0,0,0,0,0,0,0,0,0,0,0,0,0,0,0,0,0,0,0,0,0,0,0,0,0,0,0,0,0,0,0,0,0,0,0,0,0,0,0,0,0,0,0,0,0,0,0,0,0,0,0,0,0,0,0,0,0,0,0,0,0,0,0,0,0,0,0,0,0,0,0,0,0,0,0,0,0,0,0,0,0,0,0,0,0,0,0,0,0,0,0,0,0,0,0,0,0,0,0,0,0,0,0,0,0,0,0,0,0,0,0,0,0,0,0,0,0,0,0,0,0],"sum_hessian":[1.2798976E5,7.946104E4,4.8528715E4,3.43814E4,4.507964E4,2.6296006E4,2.223271E4,8.621516E3,2.5759885E4,1.2602734E4,3.2476904E4,1.8015E4,8.281006E3,1.0015739E4,1.2216973E4,6.482178E3,2.139337E3,2.5001596E4,7.582891E2,6.608459E3,5.9942754E3,1.7799025E4,1.4677879E4,9.798494E3,8.216505E3,3.7849937E3,4.496012E3,4.218481E3,5.7972583E3,6.3548438E3,5.8621284E3,6.262084E3,2.2009427E2,9.0902374E1,2.0484346E3,8.741894E3,1.6259702E4,1.3246771E2,6.258214E2,3.4294434E3,3.1790159E3,3.4103486E3,2.5839265E3,2.4708848E3,1.5328141E4,3.5407222E3,1.1137157E4,4.0520178E3,5.7464766E3,3.5334893E3,4.683016E3,2.4202014E3,1.3647922E3,2.8394653E3,1.6565466E3,2.4114666E3,1.8070142E3,3.2315447E3,2.5657136E3,4.214782E3,2.140062E3,2.3737039E3,3.4884243E3,4.194519E3,2.0675652E3,1.4894005E0,2.1860487E2,8.568382E1,5.2185545E0,1.3124476E3,7.359868E2,3.752613E2,8.366633E3,9.629566E2,1.5296745E4,1.0849152E2,5.173299E2,1.6272268E3,1.8022164E3,1.502747E3,1.6762689E3,8.8756146E2,2.522787E3,1.3027386E3,1.281188E3,1.9445765E3,5.263082E2,1.5208936E4,1.19205666E2,2.4813435E3,1.0593787E3,1.1094183E4,4.2974625E1,1.5103036E3,2.5417144E3,3.8652268E3,1.8812496E3,1.3928129E3,2.1406765E3,3.4562288E3,1.2267871E3,3.7449603E2,2.0457053E3,1.1570895E3,2.0770268E2,2.5154067E3,3.240587E2,7.103894E2,9.461573E2,2.193958E3,2.1750859E2,1.1818038E3,6.2521027E2,2.8653032E3,3.662414E2,1.5245503E3,1.0411635E3,2.284525E3,1.9302572E3,9.418834E2,1.1981785E3,1.5146052E3,8.5909863E2,1.4640922E3,2.0243322E3],"tree_param":{"num_deleted":"0","num_feature":"52","num_nodes":"125","size_leaf_vector":"1"}},{"base_weights":[7.997704E-6,5.255349E-1,-8.6482626E-1,-1.13108985E-1,1.0117258E0,-5.203008E-1,-1.2326941E0,-6.7252654E-1,5.969849E-2,4.8447052E-1,1.2171096E0,-1.0322713E0,-2.1588592E-1,-1.0509249E0,-1.3960491E0,-9.322505E-1,-4.7301248E-1,9.980789E-2,-1.286705E0,1.9387735E-1,8.0462724E-1,1.0204831E0,1.4560055E0,-1.3097554E0,-8.413684E-1,1.2325085E-1,-4.8660114E-1,-6.93934E-1,-1.2539264E0,-1.2697768E0,-1.5678706E0,-7.7898026E-1,-1.1186675E0,2.0851476E-1,-5.3695124E-1,4.384837E-1,-8.3157085E-2,-1.5937731E0,-1.1762902E0,-1.8013833E-1,4.4413564E-1,9.85448E-1,5.658034E-1,5.61811E-1,1.1528727E0,1.1406759E0,1.5094172E0,-1.1467873E0,-1.4736302E0,-6.3777417E-1,-9.627017E-1,-1.7736475E-1,4.0397298E-1,-7.259667E-1,-2.3546164E-1,-5.448929E-1,-1.4015526E0,-1.41218E0,-9.592922E-1,-1.1255957E0,-1.444742E0,-1.6179824E0,-1.4839519E0,-3.5686757E-2,-7.261269E-2,-4.8839945E-2,-6.491051E-2,1.6272692E-2,-2.84096E-2,-6.0208697E-2,-2.4547935E-2,-5.48318E-3,2.8371079E-2,-2.4213737E-2,7.860212E-4,-2.9263765E-2,-8.0305E-2,-6.1683428E-2,-3.683669E-2,3.252084E-3,-2.7133867E-2,2.9520676E-2,1.4069981E-2,3.5414275E-2,5.4805677E-2,3.8634263E-2,1.6727483E-2,5.6914892E-2,2.3836995E-2,6.0518254E-2,4.1566756E-2,9.170815E-3,5.8880117E-2,7.7629894E-2,5.636549E-2,-6.815001E-2,-4.6505E-2,-5.4255705E-2,-7.5069E-2,-3.610897E-2,-1.9457413E-2,-4.3595485E-2,-5.882403E-2,-3.8355438E-3,-3.554233E-2,2.7879206E-2,4.5658364E-3,-5.16006E-2,-2.9253498E-2,-7.061949E-4,-2.841181E-2,-3.8953282E-2,-1.0477032E-2,-3.8126696E-2,-7.311616E-2,-7.52296E-2,-6.493924E-2,-3.6578562E-2,-5.545329E-2,-4.9442623E-2,-6.757885E-2,-6.8112776E-2,-7.771582E-2,-8.2996115E-2,-7.7809356E-2,-7.01486E-2,-8.028582E-2],"categories":[],"categories_nodes":[],"categories_segments":[],"categories_sizes":[],"default_left":[0,0,0,0,0,0,0,0,0,0,0,0,0,0,0,0,0,0,0,0,0,0,0,0,0,0,0,0,0,0,0,0,0,0,0,0,0,0,0,0,0,0,0,0,0,0,0,0,0,0,0,0,0,0,0,0,0,0,0,0,0,0,0,0,0,0,0,0,0,0,0,0,0,0,0,0,0,0,0,0,0,0,0,0,0,0,0,0,0,0,0,0,0,0,0,0,0,0,0,0,0,0,0,0,0,0,0,0,0,0,0,0,0,0,0,0,0,0,0,0,0,0,0,0,0,0,0],"id":3,"left_children":[1,3,5,7,9,11,13,15,17,19,21,23,25,27,29,31,33,35,37,39,41,43,45,47,49,51,53,55,57,59,61,63,65,67,69,71,73,75,77,79,81,83,85,87,89,91,93,95,97,99,101,103,105,107,109,111,113,115,117,119,121,123,125,-1,-1,-1,-1,-1,-1,-1,-1,-1,-1,-1,-1,-1,-1,-1,-1,-1,-1,-1,-1,-1,-1,-1,-1,-1,-1,-1,-1,-1,-1,-1,-1,-1,-1,-1,-1,-1,-1,-1,-1,-1,-1,-1,-1,-1,-1,-1,-1,-1,-1,-1,-1,-1,-1,-1,-1,-1,-1,-1,-1,-1,-1,-1,-1],"loss_changes":[5.798768E4,2.464227E4,6.1114297E3,3.3162437E3,4.8788633E3,3.8811758E3,6.9103125E2,4.1907666E2,1.4155009E3,1.1751887E3,1.5217188E3,4.908086E2,1.4340623E3,7.9939844E2,2.6443945E2,9.9593994E1,1.997207E2,1.5771704E3,2.3833618E1,6.2006494E2,2.5900488E2,1.0796484E3,2.4480664E2,9.934082E1,1.3535303E2,5.8525055E2,5.219844E2,4.216565E2,3.2682812E2,1.7706738E2,1.9457031E1,8.387366E1,3.9085327E1,3.5935276E1,1.2792981E2,6.3101697E2,6.554288E2,1.5179749E0,1.3253418E1,2.361224E2,9.430768E1,1.0410254E2,1.23760315E2,1.9497717E2,2.541836E2,7.4875244E1,2.0473047E2,8.780762E1,1.866919E1,4.2913086E1,6.587573E1,1.7978653E2,1.7217963E2,1.9114551E2,3.1231076E2,2.597823E2,2.5921143E1,4.6006836E1,8.3178955E1,1.1880469E2,2.6774414E1,5.821289E0,1.702832E1,0E0,0E0,0E0,0E0,0E0,0E0,0E0,0E0,0E0,0E0,0E0,0E0,0E0,0E0,0E0,0E0,0E0,0E0,0E0,0E0,0E0,0E0,0E0,0E0,0E0,0E0,0E0,0E0,0E0,0E0,0E0,0E0,0E0,0E0,0E0,0E0,0E0,0E0,0E0,0E0,0E0,0E0,0E0,0E0,0E0,0E0,0E0,0E0,0E0,0E0,0E0,0E0,0E0,0E0,0E0,0E0,0E0,0E0,0E0,0E0,0E0,0E0,0E0,0E0],"parents":[2147483647,0,0,1,1,2,2,3,3,4,4,5,5,6,6,7,7,8,8,9,9,10,10,11,11,12,12,13,13,14,14,15,15,16,16,17,17,18,18,19,19,20,20,21,21,22,22,23,23,24,24,25,25,26,26,27,27,28,28,29,29,30,30,31,31,32,32,33,33,34,34,35,35,36,36,37,37,38,38,39,39,40,40,41,41,42,42,43,43,44,44,45,45,46,46,47,47,48,48,49,49,50,50,51,51,52,52,53,53,54,54,55,55,56,56,57,57,58,58,59,59,60,60,61,61,62,62],"right_children":[2,4,6,8,10,12,14,16,18,20,22,24,26,28,30,32,34,36,38,40,42,44,46,48,50,52,54,56,58,60,62,64,66,68,70,72,74,76,78,80,82,84,86,88,90,92,94,96,98,100,102,104,106,108,110,112,114,116,118,120,122,124,126,-1,-1,-1,-1,-1,-1,-1,-1,-1,-1,-1,-1,-1,-1,-1,-1,-1,-1,-1,-1,-1,-1,-1,-1,-1,-1,-1,-1,-1,-1,-1,-1,-1,-1,-1,-1,-1,-1,-1,-1,-1,-1,-1,-1,-1,-1,-1,-1,-1,-1,-1,-1,-1,-1,-1,-1,-1,-1,-1,-1,-1,-1,-1,-1],"split_conditions":[2.5E-1,1E0,6.4280635E-1,-5.2E-1,1E0,1E0,9.501579E-1,1E0,1E0,2E0,2E0,-6.4E-1,1E-2,-6.1E-1,-3.8E-1,9.13E1,1.854E3,1E0,-1E0,-5.2E-1,4E-2,-4.5E-1,-5.8E-1,8.99E1,3.7E-1,2E0,2E0,9.11E1,2E0,1.3713132E0,1.05E0,1E-2,7E-1,7.6E-1,1.43E0,1E0,1E0,8.24E1,1E0,9.08E1,1.3E-1,-4.5E-1,9.06E1,1.881E3,5.6E-1,1.42E0,6.1E-1,1E0,-1.4E-1,1E0,5E-2,4.4E-1,5E-1,-1.19E0,9.12E1,2E0,-1.8E-1,1E0,7.5E-1,1.2E-1,1.7768512E0,-7.5E-1,1.2656224E0,-3.5686757E-2,-7.261269E-2,-4.8839945E-2,-6.491051E-2,1.6272692E-2,-2.84096E-2,-6.0208697E-2,-2.4547935E-2,-5.48318E-3,2.8371079E-2,-2.4213737E-2,7.860212E-4,-2.9263765E-2,-8.0305E-2,-6.1683428E-2,-3.683669E-2,3.252084E-3,-2.7133867E-2,2.9520676E-2,1.4069981E-2,3.5414275E-2,5.4805677E-2,3.8634263E-2,1.6727483E-2,5.6914892E-2,2.3836995E-2,6.0518254E-2,4.1566756E-2,9.170815E-3,5.8880117E-2,7.7629894E-2,5.636549E-2,-6.815001E-2,-4.6505E-2,-5.4255705E-2,-7.5069E-2,-3.610897E-2,-1.9457413E-2,-4.3595485E-2,-5.882403E-2,-3.8355438E-3,-3.554233E-2,2.7879206E-2,4.5658364E-3,-5.16006E-2,-2.9253498E-2,-7.061949E-4,-2.841181E-2,-3.8953282E-2,-1.0477032E-2,-3.8126696E-2,-7.311616E-2,-7.52296E-2,-6.493924E-2,-3.6578562E-2,-5.545329E-2,-4.9442623E-2,-6.757885E-2,-6.8112776E-2,-7.771582E-2,-8.2996115E-2,-7.7809356E-2,-7.01486E-2,-8.028582E-2],"split_indices":[44,32,44,34,40,32,44,40,13,32,32,34,41,43,43,25,26,4,51,34,41,34,34,25,44,32,32,25,32,44,35,43,35,35,29,40,40,25,47,25,44,34,25,26,34,29,34,37,38,7,43,43,44,34,25,32,38,32,44,38,44,34,44,0,0,0,0,0,0,0,0,0,0,0,0,0,0,0,0,0,0,0,0,0,0,0,0,0,0,0,0,0,0,0,0,0,0,0,0,0,0,0,0,0,0,0,0,0,0,0,0,0,0,0,0,0,0,0,0,0,0,0,0,0,0,0,0],"split_type":[0,0,0,0,0,0,0,0,0,0,0,0,0,0,0,0,0,0,0,0,0,0,0,0,0,0,0,0,0,0,0,0,0,0,0,0,0,0,0,0,0,0,0,0,0,0,0,0,0,0,0,0,0,0,0,0,0,0,0,0,0,0,0,0,0,0,0,0,0,0,0,0,0,0,0,0,0,0,0,0,0,0,0,0,0,0,0,0,0,0,0,0,0,0,0,0,0,0,0,0,0,0,0,0,0,0,0,0,0,0,0,0,0,0,0,0,0,0,0,0,0,0,0,0,0,0,0],"sum_hessian":[1.2758542E5,7.936109E4,4.8224332E4,3.4302824E4,4.5058266E4,2.4903475E4,2.3320855E4,8.094895E3,2.620793E4,1.2632313E4,3.2425953E4,9.28515E3,1.5618325E4,1.1041805E4,1.2279051E4,3.5151982E3,4.579697E3,2.545068E4,7.572506E2,6.622734E3,6.0095796E3,1.7789404E4,1.4636548E4,3.7820078E3,5.503142E3,6.9332656E3,8.68506E3,4.004339E3,7.0374653E3,7.0824893E3,5.1965615E3,1.9319475E3,1.5832507E3,3.9260776E2,4.187089E3,8.926311E3,1.652437E4,1.9672263E2,5.60528E2,2.6550269E3,3.967707E3,3.4183313E3,2.5912483E3,3.9857542E3,1.380365E4,2.1233252E3,1.2513223E4,1.9002592E3,1.8817488E3,2.0573003E3,3.445842E3,3.348182E3,3.5850837E3,4.445799E3,4.2392603E3,3.309129E3,6.952104E2,4.5758804E3,2.461585E3,3.8868992E3,3.1955898E3,3.24221E3,1.9543516E3,1.7631459E3,1.6880156E2,8.880133E2,6.952374E2,3.4173758E2,5.0870186E1,2.6838574E2,3.9187034E3,1.6998733E3,7.2264375E3,3.2670378E3,1.3257331E4,2.9609363E0,1.9376169E2,4.9420886E2,6.631913E1,1.5843643E3,1.0706626E3,2.0881296E3,1.8795774E3,9.7752234E2,2.4408088E3,1.3664594E3,1.224789E3,5.109443E2,3.4748098E3,1.1707529E4,2.0961216E3,7.90869E1,2.0442383E3,1.1239967E4,1.2732557E3,9.4852264E2,9.517365E2,1.2811801E2,1.7536307E3,1.5344646E3,5.228357E2,2.4222075E3,1.02363434E3,2.8177004E3,5.304815E2,2.4034578E3,1.181626E3,1.3995267E3,3.0462722E3,2.5465322E3,1.692728E3,1.9477286E3,1.3614001E3,6.1549454E1,6.3366095E2,2.5144495E3,2.061431E3,9.7898566E2,1.4825992E3,2.4249294E3,1.4619698E3,1.8308085E3,1.3647814E3,1.9159857E3,1.3262244E3,1.1812676E3,7.73084E2],"tree_param":{"num_deleted":"0","num_feature":"52","num_nodes":"127","size_leaf_vector":"1"}},{"base_weights":[7.2971353E-4,5.597103E-1,-7.423805E-1,-5.4494515E-2,1.0341623E0,-3.837099E-1,-1.150346E0,-5.502911E-1,1.05442196E-1,4.8347515E-1,1.1477902E0,-9.0449053E-1,-6.579733E-2,-9.123366E-1,-1.3016456E0,-7.705725E-1,-3.795424E-1,1.4450026E-1,-1.2103943E0,1.5300368E-1,8.5711163E-1,9.70343E-1,1.3625104E0,-1.1772804E0,-6.9536346E-1,-3.4616584E-1,2.1915403E-1,-1.1197144E0,-5.29888E-1,-1.1196597E0,-1.4667443E0,-6.957468E-1,-1.2119099E0,-4.9141362E-1,-3.3913225E-2,4.668138E-1,-2.9826058E-2,-1.5196126E0,-1.0960908E0,3.5007197E-1,-1.269513E-1,6.230273E-1,1.0602984E0,4.975593E-1,1.057092E0,1.4328597E0,9.252333E-1,-1.0680305E0,-1.4397522E0,-5.493212E-1,-8.8035226E-1,-7.0001715E-1,-1.0177336E-1,5.277516E-1,-5.20195E-2,-7.993643E-1,-1.2881302E0,-1.7969055E-1,-7.992142E-1,-9.117049E-1,-1.3433237E0,-1.3768246E0,-1.5575844E0,-3.9515268E-2,-1.7152725E-2,-7.1357116E-2,-5.2882817E-2,-6.0411025E-2,-2.2226967E-2,-4.2378515E-2,3.2476826E-5,2.6652538E-3,2.9216815E-2,-3.9842036E-2,8.926506E-4,-3.1804327E-2,-7.658764E-2,-6.8872534E-2,-4.9282417E-2,6.944333E-3,4.127859E-2,-3.525584E-2,3.991257E-3,4.366859E-2,1.8647118E-2,6.1677594E-2,4.2009328E-2,2.5484866E-2,-5.089997E-2,3.8436126E-2,5.732134E-2,5.785169E-2,7.5909324E-2,5.537505E-2,3.726175E-2,-4.6638634E-2,-7.169497E-2,-8.099607E-2,-6.967835E-2,-3.2109138E-2,-1.372575E-2,-3.351973E-2,-4.966249E-2,-2.3371456E-2,-5.4355152E-2,4.2221174E-3,-2.2891454E-2,4.175676E-3,3.1121293E-2,1.1647152E-2,-1.5987623E-2,-2.7410245E-2,-6.6488504E-2,-6.976461E-2,-5.6816626E-2,6.8862694E-3,-2.2531563E-2,-3.0641345E-2,-6.316323E-2,-3.7507337E-2,-5.8838494E-2,-6.2574714E-2,-7.421889E-2,-7.309908E-2,-6.101476E-2,-7.166796E-2,-7.840773E-2],"categories":[],"categories_nodes":[],"categories_segments":[],"categories_sizes":[],"default_left":[0,0,0,0,0,0,0,0,0,0,0,0,0,0,0,0,0,0,0,0,0,0,0,0,0,0,0,0,0,0,0,0,0,0,0,0,0,0,0,0,0,0,0,0,0,0,0,0,0,0,0,0,0,0,0,0,0,0,0,0,0,0,0,0,0,0,0,0,0,0,0,0,0,0,0,0,0,0,0,0,0,0,0,0,0,0,0,0,0,0,0,0,0,0,0,0,0,0,0,0,0,0,0,0,0,0,0,0,0,0,0,0,0,0,0,0,0,0,0,0,0,0,0,0,0,0,0],"id":4,"left_children":[1,3,5,7,9,11,13,15,17,19,21,23,25,27,29,31,33,35,37,39,41,43,45,47,49,51,53,55,57,59,61,63,65,67,69,71,73,75,77,79,81,83,85,87,89,91,93,95,97,99,101,103,105,107,109,111,113,115,117,119,121,123,125,-1,-1,-1,-1,-1,-1,-1,-1,-1,-1,-1,-1,-1,-1,-1,-1,-1,-1,-1,-1,-1,-1,-1,-1,-1,-1,-1,-1,-1,-1,-1,-1,-1,-1,-1,-1,-1,-1,-1,-1,-1,-1,-1,-1,-1,-1,-1,-1,-1,-1,-1,-1,-1,-1,-1,-1,-1,-1,-1,-1,-1,-1,-1,-1],"loss_changes":[5.2802574E4,2.114091E4,7.9846504E3,2.5072239E3,2.5605625E3,4.8081104E3,9.181836E2,2.8977344E2,1.2288452E3,8.645204E2,1.2913945E3,6.2717773E2,1.4408467E3,7.8660254E2,4.6725E2,1.1033142E2,1.6803949E2,1.3046143E3,2.2696716E1,2.0512056E2,1.5565112E2,7.615E2,4.7085352E2,1.3540186E2,1.6792676E2,7.860663E2,7.485405E2,3.4614258E2,3.291729E2,3.4424707E2,6.466797E1,9.5805664E1,1.4648682E1,1.0978729E2,2.991915E1,3.9603357E2,5.511156E2,9.9331665E-1,1.4391785E1,2.1897705E2,1.8373042E2,9.543408E1,6.6001465E1,5.35448E1,4.0353516E2,3.0938672E2,6.905554E1,1.6572412E2,9.398193E0,8.8788086E1,6.44834E1,3.3382092E2,3.5662225E2,1.759054E2,3.6337683E2,2.9499854E2,6.699414E1,1.3071368E2,1.6991077E2,1.6407642E2,4.446875E1,5.3123047E1,3.0859375E0,0E0,0E0,0E0,0E0,0E0,0E0,0E0,0E0,0E0,0E0,0E0,0E0,0E0,0E0,0E0,0E0,0E0,0E0,0E0,0E0,0E0,0E0,0E0,0E0,0E0,0E0,0E0,0E0,0E0,0E0,0E0,0E0,0E0,0E0,0E0,0E0,0E0,0E0,0E0,0E0,0E0,0E0,0E0,0E0,0E0,0E0,0E0,0E0,0E0,0E0,0E0,0E0,0E0,0E0,0E0,0E0,0E0,0E0,0E0,0E0,0E0,0E0,0E0,0E0],"parents":[2147483647,0,0,1,1,2,2,3,3,4,4,5,5,6,6,7,7,8,8,9,9,10,10,11,11,12,12,13,13,14,14,15,15,16,16,17,17,18,18,19,19,20,20,21,21,22,22,23,23,24,24,25,25,26,26,27,27,28,28,29,29,30,30,31,31,32,32,33,33,34,34,35,35,36,36,37,37,38,38,39,39,40,40,41,41,42,42,43,43,44,44,45,45,46,46,47,47,48,48,49,49,50,50,51,51,52,52,53,53,54,54,55,55,56,56,57,57,58,58,59,59,60,60,61,61,62,62],"right_children":[2,4,6,8,10,12,14,16,18,20,22,24,26,28,30,32,34,36,38,40,42,44,46,48,50,52,54,56,58,60,62,64,66,68,70,72,74,76,78,80,82,84,86,88,90,92,94,96,98,100,102,104,106,108,110,112,114,116,118,120,122,124,126,-1,-1,-1,-1,-1,-1,-1,-1,-1,-1,-1,-1,-1,-1,-1,-1,-1,-1,-1,-1,-1,-1,-1,-1,-1,-1,-1,-1,-1,-1,-1,-1,-1,-1,-1,-1,-1,-1,-1,-1,-1,-1,-1,-1,-1,-1,-1,-1,-1,-1,-1,-1,-1,-1,-1,-1,-1,-1,-1,-1,-1,-1,-1,-1],"split_conditions":[1.640122E-1,1E0,5.903389E-1,-4.8E-1,-6.2E-1,1E0,8.352844E-1,-7.3E-1,1E0,2E0,2E0,-5.1E-1,2E0,2E0,3.2E-1,3.04E0,1E0,1E0,-1E0,9.1E1,1E0,1E0,6.2E-1,2.84E0,3.7E-1,-5.8E-1,1E-2,-5.4E-1,1E-2,4.8E-1,1.12E0,1.15E0,8.5E-1,1.43E0,1.41E0,1.94E0,1.43E0,8.24E1,1.52E0,7.8E-1,2.12E0,8.89E1,9.12E1,1.85E0,2.01E0,1.94E0,5.5E-1,1.01E0,3E-1,1E0,4.1E-1,9.08E1,4.1012195E-1,-5.4E-1,3.6E-1,5.7E-1,-2E-1,3.8E-1,8.9E-1,1.2836276E0,1.4E0,2E0,-5E-1,-3.9515268E-2,-1.7152725E-2,-7.1357116E-2,-5.2882817E-2,-6.0411025E-2,-2.2226967E-2,-4.2378515E-2,3.2476826E-5,2.6652538E-3,2.9216815E-2,-3.9842036E-2,8.926506E-4,-3.1804327E-2,-7.658764E-2,-6.8872534E-2,-4.9282417E-2,6.944333E-3,4.127859E-2,-3.525584E-2,3.991257E-3,4.366859E-2,1.8647118E-2,6.1677594E-2,4.2009328E-2,2.5484866E-2,-5.089997E-2,3.8436126E-2,5.732134E-2,5.785169E-2,7.5909324E-2,5.537505E-2,3.726175E-2,-4.6638634E-2,-7.169497E-2,-8.099607E-2,-6.967835E-2,-3.2109138E-2,-1.372575E-2,-3.351973E-2,-4.966249E-2,-2.3371456E-2,-5.4355152E-2,4.2221174E-3,-2.2891454E-2,4.175676E-3,3.1121293E-2,1.1647152E-2,-1.5987623E-2,-2.7410245E-2,-6.6488504E-2,-6.976461E-2,-5.6816626E-2,6.8862694E-3,-2.2531563E-2,-3.0641345E-2,-6.316323E-2,-3.7507337E-2,-5.8838494E-2,-6.2574714E-2,-7.421889E-2,-7.309908E-2,-6.101476E-2,-7.166796E-2,-7.840773E-2],"split_indices":[44,32,44,34,34,32,44,34,13,32,32,34,32,32,27,28,7,4,51,25,40,40,34,28,44,34,41,43,41,41,44,38,27,29,29,28,29,25,29,38,28,25,25,29,28,28,38,27,27,7,27,25,44,34,44,27,34,27,27,44,44,32,38,0,0,0,0,0,0,0,0,0,0,0,0,0,0,0,0,0,0,0,0,0,0,0,0,0,0,0,0,0,0,0,0,0,0,0,0,0,0,0,0,0,0,0,0,0,0,0,0,0,0,0,0,0,0,0,0,0,0,0,0,0,0,0,0],"split_type":[0,0,0,0,0,0,0,0,0,0,0,0,0,0,0,0,0,0,0,0,0,0,0,0,0,0,0,0,0,0,0,0,0,0,0,0,0,0,0,0,0,0,0,0,0,0,0,0,0,0,0,0,0,0,0,0,0,0,0,0,0,0,0,0,0,0,0,0,0,0,0,0,0,0,0,0,0,0,0,0,0,0,0,0,0,0,0,0,0,0,0,0,0,0,0,0,0,0,0,0,0,0,0,0,0,0,0,0,0,0,0,0,0,0,0,0,0,0,0,0,0,0,0,0,0,0,0],"sum_hessian":[1.2711543E5,7.254559E4,5.4569836E4,3.1616777E4,4.092882E4,2.904038E4,2.5529453E4,7.7108984E3,2.3905879E4,7.0015767E3,3.3927242E4,1.1007263E4,1.803312E4,9.924398E3,1.5605055E4,3.3655369E3,4.3453613E3,2.32176E4,6.882792E2,3.7161506E3,3.285426E3,1.8578928E4,1.5348315E4,4.774574E3,6.2326885E3,9.089545E3,8.943573E3,6.4338174E3,3.490581E3,7.4266E3,8.1784546E3,2.8798538E3,4.8568307E2,3.2824846E3,1.062877E3,8.1490557E3,1.5068544E4,1.8244032E2,5.0583884E2,2.1807842E3,1.5353666E3,1.5285284E3,1.7568977E3,2.8814873E3,1.5697441E4,1.32193125E4,2.1290024E3,3.3748945E3,1.3996797E3,3.4852075E3,2.747481E3,3.7124678E3,5.377077E3,4.182692E3,4.760882E3,2.2189028E3,4.214914E3,1.5181892E3,1.972392E3,3.8510808E3,3.575519E3,4.118168E3,4.060287E3,2.2700115E3,6.098423E2,1.993187E2,2.8636438E2,1.9995613E2,3.0825286E3,4.2350994E1,1.02052594E3,1.8037888E3,6.345267E3,8.8095074E2,1.4187593E4,3.1966007E0,1.7924371E2,1.3935358E2,3.6648526E2,1.5109935E3,6.697905E2,4.038252E2,1.1315414E3,7.626225E2,7.6590594E2,9.805149E2,7.7638275E2,2.8592515E3,2.2235878E1,3.7150405E3,1.19824E4,3.1266672E3,1.00926455E4,1.0552723E3,1.0737301E3,2.4665767E3,9.083179E2,2.7863745E2,1.1210422E3,2.6039521E3,8.812555E2,9.631781E2,1.7843027E3,2.3204114E3,1.3920565E3,3.5310928E3,1.8459844E3,7.351314E2,3.4475603E3,2.3062966E3,2.4545852E3,1.5072288E3,7.1167413E2,2.4659072E3,1.7490071E3,6.993589E2,8.1883026E2,1.4088453E3,5.6354663E2,2.3950923E3,1.4559886E3,2.1716187E3,1.4039004E3,2.661751E3,1.4564166E3,3.2910306E2,3.7311838E3],"tree_param":{"num_deleted":"0","num_feature":"52","num_nodes":"127","size_leaf_vector":"1"}},{"base_weights":[3.6588582E-4,4.64926E-1,-8.1342727E-1,-1.1110103E-1,9.0427387E-1,-5.255676E-1,-1.1814016E0,-5.9135455E-1,5.811206E-2,4.2388135E-1,1.1063588E0,-7.667021E-1,-1.7304288E-2,-9.8892975E-1,-1.3432146E0,-8.502715E-1,-4.0360895E-1,-3.603212E-1,1.6664818E-1,1.6038993E-1,7.1321476E-1,9.2342776E-1,1.3305639E0,-1.0638791E0,-5.7532966E-1,3.1425965E-1,-2.974515E-1,-6.7612785E-1,-1.1913123E0,-1.2208956E0,-1.4801351E0,-7.006419E-1,-1.0334666E0,1.9880651E-1,-4.5921138E-1,-4.5627066E-1,-7.4936874E-2,2.0545997E-1,-1.1194705E0,-1.8175748E-1,3.9089683E-1,8.753625E-1,5.032063E-1,4.9320987E-1,1.0480771E0,1.0345012E0,1.38132E0,-8.586542E-1,-1.315434E0,-8.12702E-1,-3.014172E-1,4.9531066E-1,6.005619E-2,-7.731942E-2,-6.2342584E-1,-4.836025E-1,-1.0340607E0,-1.0733479E0,-1.3544158E0,-1.3405201E0,-9.911194E-1,-1.4229158E0,-7.653127E-2,-4.1080166E-2,-1.7977428E-2,-4.4481512E-2,-6.0997564E-2,-4.0368646E-2,1.2326221E-2,-5.262047E-2,-2.0680217E-2,-2.1213718E-2,-6.592231E-2,-3.9072555E-2,-2.1707437E-3,2.6155105E-2,1.6199829E-3,-7.1811855E-2,-5.0172925E-2,2.0175602E-3,-2.6032422E-2,2.727893E-2,1.2093736E-2,3.0562306E-2,4.887816E-2,3.5093542E-2,1.3728479E-2,5.1712394E-2,2.0495143E-2,1.696519E-2,5.3739466E-2,6.034674E-2,4.1108675E-2,7.1289346E-2,5.3367354E-2,-5.3917874E-2,-3.178147E-2,-4.133244E-2,-6.825093E-2,-3.0811984E-2,-4.7065567E-2,-1.7251736E-4,-2.5458831E-2,6.2662214E-3,2.940079E-2,2.1254897E-2,-6.9664605E-3,9.834441E-3,-1.5727604E-2,-1.934503E-2,-4.740865E-2,-1.947202E-2,-7.784479E-2,-4.391857E-2,-5.95148E-2,-5.1602997E-2,-7.9060666E-2,-5.921478E-2,-7.077465E-2,-5.8297247E-2,-6.998568E-2,-3.9471388E-2,-5.7560842E-2,-7.431581E-2,-6.5686926E-2],"categories":[],"categories_nodes":[],"categories_segments":[],"categories_sizes":[],"default_left":[0,0,0,0,0,0,0,0,0,0,0,0,0,0,0,0,0,0,0,0,0,0,0,0,0,0,0,0,0,0,0,0,0,0,0,0,0,0,0,0,0,0,0,0,0,0,0,0,0,0,0,0,0,0,0,0,0,0,0,0,0,0,0,0,0,0,0,0,0,0,0,0,0,0,0,0,0,0,0,0,0,0,0,0,0,0,0,0,0,0,0,0,0,0,0,0,0,0,0,0,0,0,0,0,0,0,0,0,0,0,0,0,0,0,0,0,0,0,0,0,0,0,0,0,0],"id":5,"left_children":[1,3,5,7,9,11,13,15,17,19,21,23,25,27,29,31,33,35,37,39,41,43,45,47,49,51,53,55,57,59,61,63,65,67,69,71,73,75,77,79,81,83,85,87,89,91,93,95,97,99,101,103,105,107,109,111,113,115,117,119,121,123,-1,-1,-1,-1,-1,-1,-1,-1,-1,-1,-1,-1,-1,-1,-1,-1,-1,-1,-1,-1,-1,-1,-1,-1,-1,-1,-1,-1,-1,-1,-1,-1,-1,-1,-1,-1,-1,-1,-1,-1,-1,-1,-1,-1,-1,-1,-1,-1,-1,-1,-1,-1,-1,-1,-1,-1,-1,-1,-1,-1,-1,-1,-1],"loss_changes":[4.780179E4,2.037065E4,4.8665625E3,2.830442E3,4.432543E3,3.1599453E3,6.267754E2,4.407766E2,1.169759E3,1.030821E3,1.3170312E3,9.9388477E2,7.7079675E2,5.825459E2,1.8164062E2,1.03806885E2,1.7635132E2,1.4523083E2,1.0211071E3,5.583532E2,2.1902856E2,9.4884766E2,2.1554883E2,3.524336E2,6.915005E2,1.7487897E2,3.2270523E2,2.4911206E2,1.0617041E2,1.578457E2,1.2740234E1,8.643555E1,4.484436E1,2.1581509E1,1.2990582E2,1.08959045E2,2.9720352E1,1.0913503E3,2.0580627E1,2.145458E2,9.7367004E1,9.753784E1,1.2746332E2,1.7891357E2,2.5949805E2,7.652173E1,1.7052734E2,1.8426367E2,7.340137E1,1.4341919E2,3.058705E2,7.60517E1,1.1520163E2,1.7465735E2,1.3888446E2,2.3762244E2,2.9749268E1,6.65332E1,2.2677246E1,3.7692383E1,6.3235474E1,1.4900391E1,0E0,0E0,0E0,0E0,0E0,0E0,0E0,0E0,0E0,0E0,0E0,0E0,0E0,0E0,0E0,0E0,0E0,0E0,0E0,0E0,0E0,0E0,0E0,0E0,0E0,0E0,0E0,0E0,0E0,0E0,0E0,0E0,0E0,0E0,0E0,0E0,0E0,0E0,0E0,0E0,0E0,0E0,0E0,0E0,0E0,0E0,0E0,0E0,0E0,0E0,0E0,0E0,0E0,0E0,0E0,0E0,0E0,0E0,0E0,0E0,0E0,0E0,0E0],"parents":[2147483647,0,0,1,1,2,2,3,3,4,4,5,5,6,6,7,7,8,8,9,9,10,10,11,11,12,12,13,13,14,14,15,15,16,16,17,17,18,18,19,19,20,20,21,21,22,22,23,23,24,24,25,25,26,26,27,27,28,28,29,29,30,30,31,31,32,32,33,33,34,34,35,35,36,36,37,37,38,38,39,39,40,40,41,41,42,42,43,43,44,44,45,45,46,46,47,47,48,48,49,49,50,50,51,51,52,52,53,53,54,54,55,55,56,56,57,57,58,58,59,59,60,60,61,61],"right_children":[2,4,6,8,10,12,14,16,18,20,22,24,26,28,30,32,34,36,38,40,42,44,46,48,50,52,54,56,58,60,62,64,66,68,70,72,74,76,78,80,82,84,86,88,90,92,94,96,98,100,102,104,106,108,110,112,114,116,118,120,122,124,-1,-1,-1,-1,-1,-1,-1,-1,-1,-1,-1,-1,-1,-1,-1,-1,-1,-1,-1,-1,-1,-1,-1,-1,-1,-1,-1,-1,-1,-1,-1,-1,-1,-1,-1,-1,-1,-1,-1,-1,-1,-1,-1,-1,-1,-1,-1,-1,-1,-1,-1,-1,-1,-1,-1,-1,-1,-1,-1,-1,-1,-1,-1],"split_conditions":[2.6400757E-1,1E0,7.072482E-1,-4.8E-1,1E0,2E0,3.2E-1,1E0,1E0,2E0,2E0,-7E-1,2E-2,1E-1,1.02E0,9.13E1,1.854E3,1E0,1E0,-5.2E-1,4E-2,-4.5E-1,-5.8E-1,8.99E1,1E0,5E-1,9.09E1,1.19E0,8.6E-1,2E0,1.2656224E0,8.9E-1,7E-1,-2.6E-1,-5E-1,1E0,1.41E0,1E0,-1E0,9.09E1,1.3E-1,-1.2E-1,9.09E1,1.893E3,1.42E0,9.12E1,5.7E-1,1E0,-7E-2,5E-1,4.8E-1,-5.1E-1,1.8E-1,4.6E-1,4.809366E-1,-6.8E-1,1.48E0,1E-2,-1.09E0,6.1E-1,1E-2,2E0,-7.653127E-2,-4.1080166E-2,-1.7977428E-2,-4.4481512E-2,-6.0997564E-2,-4.0368646E-2,1.2326221E-2,-5.262047E-2,-2.0680217E-2,-2.1213718E-2,-6.592231E-2,-3.9072555E-2,-2.1707437E-3,2.6155105E-2,1.6199829E-3,-7.1811855E-2,-5.0172925E-2,2.0175602E-3,-2.6032422E-2,2.727893E-2,1.2093736E-2,3.0562306E-2,4.887816E-2,3.5093542E-2,1.3728479E-2,5.1712394E-2,2.0495143E-2,1.696519E-2,5.3739466E-2,6.034674E-2,4.1108675E-2,7.1289346E-2,5.3367354E-2,-5.3917874E-2,-3.178147E-2,-4.133244E-2,-6.825093E-2,-3.0811984E-2,-4.7065567E-2,-1.7251736E-4,-2.5458831E-2,6.2662214E-3,2.940079E-2,2.1254897E-2,-6.9664605E-3,9.834441E-3,-1.5727604E-2,-1.934503E-2,-4.740865E-2,-1.947202E-2,-7.784479E-2,-4.391857E-2,-5.95148E-2,-5.1602997E-2,-7.9060666E-2,-5.921478E-2,-7.077465E-2,-5.8297247E-2,-6.998568E-2,-3.9471388E-2,-5.7560842E-2,-7.431581E-2,-6.5686926E-2],"split_indices":[44,32,44,34,40,32,27,40,40,32,32,34,41,41,44,25,26,7,13,34,41,34,34,25,32,44,25,44,41,32,44,38,35,27,27,13,29,4,51,25,44,43,25,26,29,25,34,32,38,27,27,34,27,44,44,43,44,43,38,27,41,32,0,0,0,0,0,0,0,0,0,0,0,0,0,0,0,0,0,0,0,0,0,0,0,0,0,0,0,0,0,0,0,0,0,0,0,0,0,0,0,0,0,0,0,0,0,0,0,0,0,0,0,0,0,0,0,0,0,0,0,0,0,0,0],"split_type":[0,0,0,0,0,0,0,0,0,0,0,0,0,0,0,0,0,0,0,0,0,0,0,0,0,0,0,0,0,0,0,0,0,0,0,0,0,0,0,0,0,0,0,0,0,0,0,0,0,0,0,0,0,0,0,0,0,0,0,0,0,0,0,0,0,0,0,0,0,0,0,0,0,0,0,0,0,0,0,0,0,0,0,0,0,0,0,0,0,0,0,0,0,0,0,0,0,0,0,0,0,0,0,0,0,0,0,0,0,0,0,0,0,0,0,0,0,0,0,0,0,0,0,0,0],"sum_hessian":[1.2643907E5,8.049074E4,4.5948332E4,3.482828E4,4.5662457E4,2.5781982E4,2.016635E4,9.073567E3,2.5754713E4,1.3521794E4,3.2140664E4,1.7485742E4,8.296239E3,9.213853E3,1.0952497E4,3.8124075E3,5.2611597E3,5.304037E3,2.0450678E4,7.0777505E3,6.4440435E3,1.7702312E4,1.4438353E4,6.847652E3,1.063809E4,3.7993982E3,4.4968413E3,3.6212305E3,5.592622E3,5.7899287E3,5.162569E3,2.1011003E3,1.7113071E3,4.4434976E2,4.81681E3,3.9690115E3,1.3350255E3,1.9852422E4,5.982551E2,2.8490469E3,4.2287036E3,3.634598E3,2.8094453E3,3.9778875E3,1.3724425E4,2.1161448E3,1.2322207E4,3.7735254E3,3.0741267E3,5.6981294E3,4.939961E3,2.218424E3,1.5809741E3,2.6849314E3,1.81191E3,2.356217E3,1.2650134E3,3.2497922E3,2.3428296E3,3.804449E3,1.9854796E3,2.4337036E3,2.728865E3,1.550013E3,5.510874E2,9.693865E2,7.4192065E2,1.9398266E1,4.249515E2,3.4231668E2,4.474493E3,3.8284263E3,1.405851E2,5.6003677E1,1.2790219E3,7.0008135E3,1.2851608E4,1.573196E2,4.4093555E2,1.7215961E3,1.1274509E3,2.073644E3,2.1550596E3,1.0159829E3,2.618615E3,1.502147E3,1.3072985E3,5.2925073E2,3.4486367E3,4.9895663E2,1.3225468E4,1.1651938E3,9.509508E2,1.0790453E4,1.5317546E3,1.8989861E3,1.8745394E3,2.8475928E2,2.7893672E3,2.2566633E3,3.441466E3,2.0298226E3,2.9101382E3,4.4495605E2,1.773468E3,5.5808344E2,1.0228907E3,1.245976E3,1.4389553E3,1.0496229E3,7.622871E2,2.1674272E3,1.8878976E2,6.3693036E2,6.2808307E2,3.0082615E3,2.4153087E2,6.243102E2,1.7185194E3,9.685805E2,2.8358684E3,8.8123114E2,1.1042484E3,1.5316481E3,9.020556E2],"tree_param":{"num_deleted":"0","num_feature":"52","num_nodes":"125","size_leaf_vector":"1"}},{"base_weights":[6.230564E-5,4.741086E-1,-7.32919E-1,7.311646E-1,-2.0000355E-1,-3.9393225E-1,-1.0663972E0,5.129218E-1,1.1283454E0,-7.25712E-1,-7.434286E-2,-6.344345E-1,1.3153899E-1,-8.726493E-1,-1.234232E0,-8.156671E-2,6.494053E-1,7.2215235E-1,1.2779684E0,-1.7842156E-1,-7.7372956E-1,-3.9699936E-1,2.2687297E-2,-9.30474E-1,-4.2654532E-1,4.290512E-1,-1.2427893E-1,-1.0661192E0,-5.26201E-1,-1.0341194E0,-1.3727167E0,4.110405E-1,-1.8164821E-1,6.987717E-1,-1.1517538E0,8.7497634E-1,5.148748E-1,1.0149999E0,1.3304323E0,8.274577E-3,-9.1454566E-1,-6.610694E-1,-9.8507595E-1,-1.3202408E-1,-8.5132325E-1,-4.5506313E-1,1.3197468E-1,-7.352845E-1,-1.1838657E0,-2.5775066E-1,-7.464641E-1,4.7254604E-1,-3.6591983E-1,4.3519285E-2,-4.7271568E-1,-7.7434176E-1,-1.2275221E0,-1.6629519E-1,-7.441059E-1,-7.818088E-1,-1.2113535E0,-1.2759309E0,-1.4437758E0,2.7616262E-2,-2.8469572E-2,-7.3579834E-3,-7.115347E-2,1.22420145E-2,4.009186E-2,-7.655678E-2,-5.3406794E-2,3.1169048E-2,4.8724998E-2,-2.1930536E-2,2.800422E-2,5.946482E-2,4.2385787E-2,6.8668894E-2,4.9201302E-2,1.3321375E-2,-1.812618E-2,-6.39897E-2,-2.9603425E-2,-5.5783015E-2,-3.0491605E-2,-5.7492536E-2,-4.1263368E-2,-3.5062745E-2,-4.1445047E-3,-2.8028062E-2,-4.9126636E-2,-8.831468E-3,-5.0523568E-2,-1.2217463E-2,9.489371E-3,-2.8121544E-2,-6.463121E-2,-5.2549984E-2,-6.489534E-2,-2.283888E-3,-2.3345757E-2,-3.0375233E-2,-4.3513414E-2,7.165869E-3,2.8500075E-2,-3.259328E-2,-5.8059365E-4,5.7791886E-3,-5.3228695E-2,-4.7951538E-2,-1.4759754E-2,-2.769124E-2,-6.325016E-2,-6.667381E-2,-5.5066057E-2,2.2454641E-4,-5.3982805E-2,-2.9519925E-2,-4.7569405E-2,-5.2687496E-2,-3.211442E-2,-5.6586456E-2,-7.042345E-2,-5.548441E-2,-6.8373136E-2,-6.855955E-2,-7.439682E-2],"categories":[],"categories_nodes":[],"categories_segments":[],"categories_sizes":[],"default_left":[0,0,0,0,0,0,0,0,0,0,0,0,0,0,0,0,0,0,0,0,0,0,0,0,0,0,0,0,0,0,0,0,0,0,0,0,0,0,0,0,0,0,0,0,0,0,0,0,0,0,0,0,0,0,0,0,0,0,0,0,0,0,0,0,0,0,0,0,0,0,0,0,0,0,0,0,0,0,0,0,0,0,0,0,0,0,0,0,0,0,0,0,0,0,0,0,0,0,0,0,0,0,0,0,0,0,0,0,0,0,0,0,0,0,0,0,0,0,0,0,0,0,0,0,0,0,0],"id":6,"left_children":[1,3,5,7,9,11,13,15,17,19,21,23,25,27,29,31,33,35,37,39,41,43,45,47,49,51,53,55,57,59,61,63,65,67,69,71,73,75,77,79,81,83,85,87,89,91,93,95,97,99,101,103,105,107,109,111,113,115,117,119,121,123,125,-1,-1,-1,-1,-1,-1,-1,-1,-1,-1,-1,-1,-1,-1,-1,-1,-1,-1,-1,-1,-1,-1,-1,-1,-1,-1,-1,-1,-1,-1,-1,-1,-1,-1,-1,-1,-1,-1,-1,-1,-1,-1,-1,-1,-1,-1,-1,-1,-1,-1,-1,-1,-1,-1,-1,-1,-1,-1,-1,-1,-1,-1,-1,-1],"loss_changes":[4.3673797E4,1.3226584E4,5.579922E3,4.789215E3,1.3919587E3,3.093974E3,8.080801E2,2.8937227E3,1.1899551E3,1.0668799E2,5.324754E2,1.0332153E3,5.851462E2,7.738447E2,3.6801953E2,3.2840967E2,2.5798145E3,1.6671094E2,1.9619336E2,4.5247482E1,8.832324E1,4.732608E2,6.828118E2,3.4176758E2,5.326964E2,1.2307306E2,2.417348E2,3.4813574E2,3.2471265E2,2.4305225E2,5.2323242E1,1.5613362E2,2.3681062E2,1.3206104E3,2.2922607E1,7.541553E1,9.688971E1,6.8552734E1,1.7618164E2,2.532674E1,7.087387E0,5.6164307E1,3.3211548E1,6.943886E1,5.4704834E1,3.7632574E2,2.3159589E2,3.7652246E2,4.4285645E1,2.8659393E2,5.809851E1,1.080589E2,1.8729666E1,2.2302176E2,1.1573471E2,2.8524255E2,6.232422E1,2.4386636E2,8.162854E1,8.484973E1,4.8681152E1,4.934961E1,1.2493164E1,0E0,0E0,0E0,0E0,0E0,0E0,0E0,0E0,0E0,0E0,0E0,0E0,0E0,0E0,0E0,0E0,0E0,0E0,0E0,0E0,0E0,0E0,0E0,0E0,0E0,0E0,0E0,0E0,0E0,0E0,0E0,0E0,0E0,0E0,0E0,0E0,0E0,0E0,0E0,0E0,0E0,0E0,0E0,0E0,0E0,0E0,0E0,0E0,0E0,0E0,0E0,0E0,0E0,0E0,0E0,0E0,0E0,0E0,0E0,0E0,0E0,0E0,0E0,0E0],"parents":[2147483647,0,0,1,1,2,2,3,3,4,4,5,5,6,6,7,7,8,8,9,9,10,10,11,11,12,12,13,13,14,14,15,15,16,16,17,17,18,18,19,19,20,20,21,21,22,22,23,23,24,24,25,25,26,26,27,27,28,28,29,29,30,30,31,31,32,32,33,33,34,34,35,35,36,36,37,37,38,38,39,39,40,40,41,41,42,42,43,43,44,44,45,45,46,46,47,47,48,48,49,49,50,50,51,51,52,52,53,53,54,54,55,55,56,56,57,57,58,58,59,59,60,60,61,61,62,62],"right_children":[2,4,6,8,10,12,14,16,18,20,22,24,26,28,30,32,34,36,38,40,42,44,46,48,50,52,54,56,58,60,62,64,66,68,70,72,74,76,78,80,82,84,86,88,90,92,94,96,98,100,102,104,106,108,110,112,114,116,118,120,122,124,126,-1,-1,-1,-1,-1,-1,-1,-1,-1,-1,-1,-1,-1,-1,-1,-1,-1,-1,-1,-1,-1,-1,-1,-1,-1,-1,-1,-1,-1,-1,-1,-1,-1,-1,-1,-1,-1,-1,-1,-1,-1,-1,-1,-1,-1,-1,-1,-1,-1,-1,-1,-1,-1,-1,-1,-1,-1,-1,-1,-1,-1,-1,-1,-1],"split_conditions":[2.2E-1,1E0,5.903389E-1,1E0,-5.9E-1,1E0,8.9810914E-1,-6E-1,1E0,1.854E3,1.96E0,-5.8E-1,1E-2,1E0,1.9E-1,1.967E3,1E0,4E-2,-5.5E-1,2.86E0,6E-2,7.3E-1,1E-1,9.04E1,1E0,3.97E0,9.2E-1,-5.4E-1,-5.8E-1,1.9E-1,1.12E0,2.96E0,1E0,1E0,-2E0,-4.6E-1,3.04E0,8.97E1,6E-1,3E-2,4.6E-1,-3.4E-1,1E0,3.08E0,9.9E-1,2.71E0,1E0,2.68E0,3.679674E-1,3.8E-1,3.7E-1,1.16E0,1.33E0,1E-2,2.24E0,5.7E-1,1E0,6.3E-1,7.5E-1,3.29E0,1.6274213E0,6.1E-1,5.9E-1,2.7616262E-2,-2.8469572E-2,-7.3579834E-3,-7.115347E-2,1.22420145E-2,4.009186E-2,-7.655678E-2,-5.3406794E-2,3.1169048E-2,4.8724998E-2,-2.1930536E-2,2.800422E-2,5.946482E-2,4.2385787E-2,6.8668894E-2,4.9201302E-2,1.3321375E-2,-1.812618E-2,-6.39897E-2,-2.9603425E-2,-5.5783015E-2,-3.0491605E-2,-5.7492536E-2,-4.1263368E-2,-3.5062745E-2,-4.1445047E-3,-2.8028062E-2,-4.9126636E-2,-8.831468E-3,-5.0523568E-2,-1.2217463E-2,9.489371E-3,-2.8121544E-2,-6.463121E-2,-5.2549984E-2,-6.489534E-2,-2.283888E-3,-2.3345757E-2,-3.0375233E-2,-4.3513414E-2,7.165869E-3,2.8500075E-2,-3.259328E-2,-5.8059365E-4,5.7791886E-3,-5.3228695E-2,-4.7951538E-2,-1.4759754E-2,-2.769124E-2,-6.325016E-2,-6.667381E-2,-5.5066057E-2,2.2454641E-4,-5.3982805E-2,-2.9519925E-2,-4.7569405E-2,-5.2687496E-2,-3.211442E-2,-5.6586456E-2,-7.042345E-2,-5.548441E-2,-6.8373136E-2,-6.855955E-2,-7.439682E-2],"split_indices":[44,4,44,39,34,39,44,34,40,26,28,34,41,39,27,26,13,41,34,28,44,27,27,25,4,28,27,43,43,41,44,28,13,40,51,34,30,25,34,44,27,27,37,30,27,28,40,28,44,44,44,28,27,43,28,27,37,27,44,30,44,27,27,0,0,0,0,0,0,0,0,0,0,0,0,0,0,0,0,0,0,0,0,0,0,0,0,0,0,0,0,0,0,0,0,0,0,0,0,0,0,0,0,0,0,0,0,0,0,0,0,0,0,0,0,0,0,0,0,0,0,0,0,0,0,0,0],"split_type":[0,0,0,0,0,0,0,0,0,0,0,0,0,0,0,0,0,0,0,0,0,0,0,0,0,0,0,0,0,0,0,0,0,0,0,0,0,0,0,0,0,0,0,0,0,0,0,0,0,0,0,0,0,0,0,0,0,0,0,0,0,0,0,0,0,0,0,0,0,0,0,0,0,0,0,0,0,0,0,0,0,0,0,0,0,0,0,0,0,0,0,0,0,0,0,0,0,0,0,0,0,0,0,0,0,0,0,0,0,0,0,0,0,0,0,0,0,0,0,0,0,0,0,0,0,0,0],"sum_hessian":[1.2568991E5,7.632684E4,4.936306E4,5.5256184E4,2.1070664E4,2.448043E4,2.488263E4,3.5662598E4,1.9593586E4,4.0639841E3,1.700668E4,1.679386E4,7.6865693E3,1.1552579E4,1.3330052E4,6.658822E3,2.9003775E4,5.2760693E3,1.4317516E4,3.2818146E2,3.7358027E3,3.9311729E3,1.3075507E4,6.926655E3,9.867205E3,3.553374E3,4.1331953E3,7.411589E3,4.1409897E3,5.4553916E3,7.8746597E3,1.1238849E3,5.5349365E3,2.8230639E4,7.7313696E2,3.035097E3,2.2409724E3,2.3847275E3,1.1932788E4,2.6257565E2,6.56058E1,2.439521E3,1.2962819E3,2.4838235E3,1.4473495E3,2.4336458E3,1.0641861E4,3.9148887E3,3.011766E3,6.4603945E3,3.4068108E3,3.3694297E3,1.8394429E2,2.7903223E3,1.3428728E3,2.6417476E3,4.7698413E3,1.5623215E3,2.5786682E3,2.2531785E3,3.202213E3,3.3418523E3,4.5328076E3,9.8270874E2,1.411762E2,5.3864126E3,1.4852408E2,5.22436E3,2.300628E4,1.3650243E2,6.366345E2,8.623476E2,2.1727493E3,1.0105194E2,2.1399204E3,1.1648936E3,1.219834E3,1.0613967E4,1.3188213E3,1.5496747E2,1.0760821E2,2.9370813E1,3.6234985E1,2.4500423E2,2.1945166E3,6.351741E2,6.611078E2,1.9630487E2,2.2875186E3,4.5168396E2,9.956655E2,1.6218887E3,8.117571E2,1.4167168E3,9.225145E3,2.9896775E3,9.2521124E2,1.3957892E3,1.6159769E3,3.2084998E3,3.251895E3,1.6079427E3,1.7988679E3,7.701484E2,2.5992815E3,1.013276E2,8.26167E1,2.6207766E3,1.695457E2,3.5792905E2,9.849437E2,1.8240824E3,8.1766504E2,2.587719E3,2.1821226E3,1.3170468E3,2.4527481E2,1.4828954E3,1.095773E3,7.6179706E2,1.4913813E3,2.2856638E3,9.165492E2,1.1913013E3,2.150551E3,1.726724E3,2.8060835E3],"tree_param":{"num_deleted":"0","num_feature":"52","num_nodes":"127","size_leaf_vector":"1"}},{"base_weights":[-1.6850821E-3,4.851947E-1,-6.5745234E-1,-5.4028362E-2,9.0631425E-1,-3.0676258E-1,-9.9883556E-1,-4.6061143E-1,9.448265E-2,3.9068162E-1,1.0019714E0,-7.849093E-1,-1.7828124E-2,-7.844295E-1,-1.1720004E0,-6.8439186E-1,-3.0447456E-1,1.2788321E-1,-1.064223E0,1.1547699E-1,7.060951E-1,8.4259456E-1,1.1977663E0,-1.0445461E0,-5.874195E-1,-3.3300775E-1,1.7899844E-1,-9.853826E-1,-4.181031E-1,-9.957787E-1,-1.3341357E0,-6.178009E-1,-1.1332941E0,-1.0150814E0,-2.579144E-1,-1.6831895E-2,3.954875E-1,-1.1149662E0,-6.427017E-1,6.54367E-1,-1.0371928E-3,9.107643E-1,4.8049128E-1,4.4747758E-1,9.305769E-1,1.2582157E0,7.775695E-1,-9.0626925E-1,-1.2543159E0,-4.7987154E-1,-7.5435805E-1,-1.17376976E-1,-6.817061E-1,-4.402563E-2,4.137923E-1,-6.805481E-1,-1.1421529E0,-1.0133859E-1,-6.7709106E-1,-7.9663247E-1,-1.2153122E0,-1.2433431E0,-1.4212377E0,-1.0710014E-3,-3.3550967E-2,-6.9436364E-2,-5.0844904E-2,-4.3971658E-2,-6.884398E-2,-1.1430067E-2,-6.3449286E-2,-3.7781827E-2,1.4555346E-3,-1.2040077E-3,2.5151385E-2,-6.486469E-2,-4.961456E-2,-1.6673882E-2,-4.710186E-2,3.9675113E-2,-4.114855E-3,5.928524E-3,-1.4415584E-2,4.7832448E-2,-1.1152606E-2,4.279034E-2,4.355315E-3,3.8822934E-2,-1.8198058E-2,4.939412E-2,2.4282878E-2,4.9324263E-2,6.7121275E-2,2.6698235E-2,5.186968E-2,-3.68487E-2,-6.493088E-2,-7.420978E-2,-6.024587E-2,-2.285256E-2,-6.9094904E-2,-2.5837427E-2,-4.2262297E-2,7.963966E-5,-4.717649E-2,-4.796148E-2,-2.1123018E-2,3.8843849E-3,-1.7337568E-2,2.939089E-2,5.8796178E-3,-2.1020858E-2,-5.8294278E-2,-6.329019E-2,-4.967673E-2,1.297787E-3,-3.392147E-2,-2.4725141E-2,-5.4700237E-2,-3.2545853E-2,-5.3028762E-2,-5.6221087E-2,-6.7759655E-2,-6.649337E-2,-5.4329153E-2,-6.819629E-2,-7.251053E-2],"categories":[],"categories_nodes":[],"categories_segments":[],"categories_sizes":[],"default_left":[0,0,0,0,0,0,0,0,0,0,0,0,0,0,0,0,0,0,0,0,0,0,0,0,0,0,0,0,0,0,0,0,0,0,0,0,0,0,0,0,0,0,0,0,0,0,0,0,0,0,0,0,0,0,0,0,0,0,0,0,0,0,0,0,0,0,0,0,0,0,0,0,0,0,0,0,0,0,0,0,0,0,0,0,0,0,0,0,0,0,0,0,0,0,0,0,0,0,0,0,0,0,0,0,0,0,0,0,0,0,0,0,0,0,0,0,0,0,0,0,0,0,0,0,0,0,0],"id":7,"left_children":[1,3,5,7,9,11,13,15,17,19,21,23,25,27,29,31,33,35,37,39,41,43,45,47,49,51,53,55,57,59,61,63,65,67,69,71,73,75,77,79,81,83,85,87,89,91,93,95,97,99,101,103,105,107,109,111,113,115,117,119,121,123,125,-1,-1,-1,-1,-1,-1,-1,-1,-1,-1,-1,-1,-1,-1,-1,-1,-1,-1,-1,-1,-1,-1,-1,-1,-1,-1,-1,-1,-1,-1,-1,-1,-1,-1,-1,-1,-1,-1,-1,-1,-1,-1,-1,-1,-1,-1,-1,-1,-1,-1,-1,-1,-1,-1,-1,-1,-1,-1,-1,-1,-1,-1,-1,-1],"loss_changes":[3.9887695E4,1.6280971E4,6.372672E3,1.8985204E3,1.9852734E3,3.6278572E3,1.00055273E3,2.9370923E2,8.914337E2,5.468932E2,1.0586289E3,5.06563E2,1.0155601E3,8.8699316E2,4.2496094E2,1.0261926E2,1.6373407E2,8.6692487E2,1.308728E1,2.1136806E2,1.3512817E2,6.504551E2,3.8601172E2,1.2277637E2,1.0054321E2,4.7310577E2,5.2771893E2,3.7120068E2,3.503999E2,3.1177148E2,5.9660156E1,9.558276E1,1.1826782E1,1.3731049E1,1.3761966E2,4.932006E2,3.545204E2,1.1566223E1,6.3228188E0,6.1404236E1,9.5174065E1,8.024243E1,2.0643088E2,9.11046E2,3.899248E2,3.034121E2,1.2089026E2,1.7030273E2,1.7455322E1,6.978601E1,4.708142E1,3.8231555E2,1.7258557E2,1.9048816E2,2.5298566E2,3.3356934E2,9.317578E1,1.4126994E2,1.7836316E2,1.4368066E2,4.1710938E1,5.0248535E1,4.5927734E0,0E0,0E0,0E0,0E0,0E0,0E0,0E0,0E0,0E0,0E0,0E0,0E0,0E0,0E0,0E0,0E0,0E0,0E0,0E0,0E0,0E0,0E0,0E0,0E0,0E0,0E0,0E0,0E0,0E0,0E0,0E0,0E0,0E0,0E0,0E0,0E0,0E0,0E0,0E0,0E0,0E0,0E0,0E0,0E0,0E0,0E0,0E0,0E0,0E0,0E0,0E0,0E0,0E0,0E0,0E0,0E0,0E0,0E0,0E0,0E0,0E0,0E0,0E0,0E0],"parents":[2147483647,0,0,1,1,2,2,3,3,4,4,5,5,6,6,7,7,8,8,9,9,10,10,11,11,12,12,13,13,14,14,15,15,16,16,17,17,18,18,19,19,20,20,21,21,22,22,23,23,24,24,25,25,26,26,27,27,28,28,29,29,30,30,31,31,32,32,33,33,34,34,35,35,36,36,37,37,38,38,39,39,40,40,41,41,42,42,43,43,44,44,45,45,46,46,47,47,48,48,49,49,50,50,51,51,52,52,53,53,54,54,55,55,56,56,57,57,58,58,59,59,60,60,61,61,62,62],"right_children":[2,4,6,8,10,12,14,16,18,20,22,24,26,28,30,32,34,36,38,40,42,44,46,48,50,52,54,56,58,60,62,64,66,68,70,72,74,76,78,80,82,84,86,88,90,92,94,96,98,100,102,104,106,108,110,112,114,116,118,120,122,124,126,-1,-1,-1,-1,-1,-1,-1,-1,-1,-1,-1,-1,-1,-1,-1,-1,-1,-1,-1,-1,-1,-1,-1,-1,-1,-1,-1,-1,-1,-1,-1,-1,-1,-1,-1,-1,-1,-1,-1,-1,-1,-1,-1,-1,-1,-1,-1,-1,-1,-1,-1,-1,-1,-1,-1,-1,-1,-1,-1,-1,-1,-1,-1,-1],"split_conditions":[1.640122E-1,1E0,5.5E-1,-4.4E-1,-6.5E-1,1E0,8.352844E-1,-7.2E-1,1E0,2E0,2E0,-5E-1,-6.9E-1,2E0,3.2E-1,3.08E0,1.43E0,1E0,1E0,1.967E3,9E1,1.84E0,6.5E-1,2.54E0,3.7E-1,9.08E1,2E0,-5.4E-1,2E-2,4.8E-1,1.1016351E0,1.807E3,6.4E-1,3.14E0,1E0,1.43E0,1.91E0,3.3E0,2E0,-6.4E-1,7E-2,3.22E0,7E-1,7.7E-1,6.9E-1,1.94E0,-1E0,8.9E-1,1.8E-1,1E0,2.7E-1,2.93E0,2E0,4.1012195E-1,6E-1,5.3E-1,1E0,4.02E0,8.3E-1,1.3059862E0,1.4E0,2E0,6.6E-1,-1.0710014E-3,-3.3550967E-2,-6.9436364E-2,-5.0844904E-2,-4.3971658E-2,-6.884398E-2,-1.1430067E-2,-6.3449286E-2,-3.7781827E-2,1.4555346E-3,-1.2040077E-3,2.5151385E-2,-6.486469E-2,-4.961456E-2,-1.6673882E-2,-4.710186E-2,3.9675113E-2,-4.114855E-3,5.928524E-3,-1.4415584E-2,4.7832448E-2,-1.1152606E-2,4.279034E-2,4.355315E-3,3.8822934E-2,-1.8198058E-2,4.939412E-2,2.4282878E-2,4.9324263E-2,6.7121275E-2,2.6698235E-2,5.186968E-2,-3.68487E-2,-6.493088E-2,-7.420978E-2,-6.024587E-2,-2.285256E-2,-6.9094904E-2,-2.5837427E-2,-4.2262297E-2,7.963966E-5,-4.717649E-2,-4.796148E-2,-2.1123018E-2,3.8843849E-3,-1.7337568E-2,2.939089E-2,5.8796178E-3,-2.1020858E-2,-5.8294278E-2,-6.329019E-2,-4.967673E-2,1.297787E-3,-3.392147E-2,-2.4725141E-2,-5.4700237E-2,-3.2545853E-2,-5.3028762E-2,-5.6221087E-2,-6.7759655E-2,-6.649337E-2,-5.4329153E-2,-6.819629E-2,-7.251053E-2],"split_indices":[44,32,44,34,34,32,44,34,13,32,32,34,34,32,27,28,29,31,47,26,25,28,34,28,44,25,32,43,41,41,44,26,27,30,13,29,28,30,33,35,44,28,35,27,34,28,35,27,27,13,27,28,32,44,34,27,32,28,27,44,44,32,27,0,0,0,0,0,0,0,0,0,0,0,0,0,0,0,0,0,0,0,0,0,0,0,0,0,0,0,0,0,0,0,0,0,0,0,0,0,0,0,0,0,0,0,0,0,0,0,0,0,0,0,0,0,0,0,0,0,0,0,0,0,0,0,0],"split_type":[0,0,0,0,0,0,0,0,0,0,0,0,0,0,0,0,0,0,0,0,0,0,0,0,0,0,0,0,0,0,0,0,0,0,0,0,0,0,0,0,0,0,0,0,0,0,0,0,0,0,0,0,0,0,0,0,0,0,0,0,0,0,0,0,0,0,0,0,0,0,0,0,0,0,0,0,0,0,0,0,0,0,0,0,0,0,0,0,0,0,0,0,0,0,0,0,0,0,0,0,0,0,0,0,0,0,0,0,0,0,0,0,0,0,0,0,0,0,0,0,0,0,0,0,0,0,0],"sum_hessian":[1.2492822E5,7.169669E4,5.3231535E4,3.1440074E4,4.0256613E4,2.6258793E4,2.697274E4,8.41098E3,2.3029094E4,6.300315E3,3.3956297E4,9.890184E3,1.6368608E4,1.2053765E4,1.4918977E4,3.4553203E3,4.95566E3,2.2384727E4,6.4436694E2,3.3653474E3,2.9349673E3,1.8721955E4,1.5234343E4,4.2709473E3,5.619237E3,6.2921914E3,1.0076417E4,7.7827466E3,4.2710176E3,7.152358E3,7.766619E3,3.0110342E3,4.4428595E2,3.0345712E2,4.6522026E3,1.4528784E4,7.855943E3,5.736638E2,7.0703156E1,5.9745245E2,2.767895E3,1.5372908E3,1.3976765E3,3.4107632E3,1.5311191E4,1.3316622E4,1.9177203E3,2.5773318E3,1.6936155E3,3.419892E3,2.1993447E3,3.888764E3,2.4034272E3,5.16815E3,4.9082676E3,2.6449907E3,5.137756E3,1.921837E3,2.3491807E3,3.7527454E3,3.3996123E3,3.8102263E3,3.9563926E3,2.4679391E2,2.7642405E3,1.3565584E2,3.0863013E2,2.2320284E2,8.025429E1,4.5223174E3,1.2988536E2,8.496752E2,1.3679109E4,1.6029227E3,6.2530205E3,2.268819E2,3.4678192E2,3.5816998E1,3.4886158E1,5.0247235E2,9.4980125E1,1.9546552E3,8.1323987E2,1.4776478E3,5.964296E1,7.1466394E2,6.830126E2,2.4268784E3,9.8388464E2,1.3563054E4,1.7481383E3,3.153507E3,1.0163115E4,9.913291E2,9.2639124E2,1.802462E3,7.748697E2,2.9442746E2,1.399188E3,3.3369766E3,8.2915474E1,6.10359E2,1.5889857E3,3.4001282E3,4.8863586E2,1.1594895E3,1.2439379E3,3.686647E3,1.4815028E3,3.0911492E3,1.8171184E3,1.7232373E3,9.2175354E2,2.8003435E3,2.3374126E3,1.575311E3,3.465261E2,1.635219E3,7.139617E2,2.420127E3,1.3326184E3,2.0661362E3,1.3334762E3,2.4502952E3,1.3599313E3,1.3446321E3,2.6117605E3],"tree_param":{"num_deleted":"0","num_feature":"52","num_nodes":"127","size_leaf_vector":"1"}},{"base_weights":[-1.4925114E-3,4.0452367E-1,-7.247767E-1,-1.0314562E-1,7.959331E-1,-4.8275402E-1,-1.0925683E0,-5.952719E-1,2.6080078E-2,3.6589345E-1,9.7996444E-1,-8.962061E-1,-2.5001422E-1,-9.1397995E-1,-1.2497511E0,-7.819045E-1,-4.19239E-1,-3.439585E-1,1.19491495E-1,1.4101486E-1,6.150675E-1,8.158398E-1,1.1852419E0,-1.139662E0,-7.346889E-1,4.049785E-2,-4.8033983E-1,-6.4425766E-1,-1.0903867E0,-1.134486E0,-1.3597957E0,-6.771449E-1,-1.0679768E0,1.5545198E-1,-4.7502548E-1,-4.3049017E-1,-8.3592236E-2,-6.8940914E-1,1.6760802E-1,-1.5453091E-1,3.4541625E-1,3.8960412E-1,7.4759835E-1,4.3679866E-1,9.2598766E-1,1.0006796E0,1.2664715E0,-9.7728086E-1,-1.302533E0,-6.576095E-1,-1.0736594E0,3.1432423E-1,-1.6776924E-1,-3.50743E-1,-8.6818135E-1,-5.821647E-1,-1.4936655E0,-1.021557E0,-1.3793907E0,-1.2502241E0,-9.200873E-1,-1.317218E0,-1.4309134E0,-2.7234811E-2,-5.4984003E-2,-6.937967E-2,-4.8076965E-2,1.5605317E-2,-2.9593885E-2,-5.1380254E-2,-2.163122E-2,-2.0220382E-2,-5.9537232E-2,-3.9462503E-2,-2.6294522E-3,-2.585103E-2,-6.0223926E-2,1.0009438E-2,-4.921895E-2,1.9776828E-3,-2.2616977E-2,1.7917654E-2,-5.5803813E-2,3.050221E-2,6.718807E-3,4.3421544E-2,2.6930222E-2,4.385225E-2,1.75255E-2,3.199901E-2,5.0591268E-2,6.2792175E-2,2.217444E-2,5.1898327E-2,6.644463E-2,-3.8977716E-2,-6.2482208E-2,-5.9900906E-2,-7.04022E-2,-2.3132531E-2,-4.0799856E-2,-6.482873E-2,-4.0787872E-2,2.307684E-2,-5.526451E-2,-2.7029574E-2,3.970317E-3,-1.2566167E-2,-4.849449E-2,-3.3929132E-2,-5.622643E-2,-4.7495127E-2,-1.8828183E-2,-7.4865125E-2,-2.2013543E-2,-4.4976972E-2,-6.2285125E-2,-7.325119E-2,-5.986613E-2,-6.876749E-2,-5.9207518E-2,-3.7505414E-2,-5.2792676E-2,-6.869068E-2,-6.1212946E-2,-7.15984E-2,-3.255186E-2],"categories":[],"categories_nodes":[],"categories_segments":[],"categories_sizes":[],"default_left":[0,0,0,0,0,0,0,0,0,0,0,0,0,0,0,0,0,0,0,0,0,0,0,0,0,0,0,0,0,0,0,0,0,0,0,0,0,0,0,0,0,0,0,0,0,0,0,0,0,0,0,0,0,0,0,0,0,0,0,0,0,0,0,0,0,0,0,0,0,0,0,0,0,0,0,0,0,0,0,0,0,0,0,0,0,0,0,0,0,0,0,0,0,0,0,0,0,0,0,0,0,0,0,0,0,0,0,0,0,0,0,0,0,0,0,0,0,0,0,0,0,0,0,0,0,0,0],"id":8,"left_children":[1,3,5,7,9,11,13,15,17,19,21,23,25,27,29,31,33,35,37,39,41,43,45,47,49,51,53,55,57,59,61,63,65,67,69,71,73,75,77,79,81,83,85,87,89,91,93,95,97,99,101,103,105,107,109,111,113,115,117,119,121,123,125,-1,-1,-1,-1,-1,-1,-1,-1,-1,-1,-1,-1,-1,-1,-1,-1,-1,-1,-1,-1,-1,-1,-1,-1,-1,-1,-1,-1,-1,-1,-1,-1,-1,-1,-1,-1,-1,-1,-1,-1,-1,-1,-1,-1,-1,-1,-1,-1,-1,-1,-1,-1,-1,-1,-1,-1,-1,-1,-1,-1,-1,-1,-1,-1],"loss_changes":[3.6462863E4,1.5802014E4,3.973125E3,2.201766E3,3.5533555E3,2.5907397E3,4.9617188E2,2.3623022E2,9.4789996E2,7.540631E2,1.0584805E3,3.8048828E2,1.1528632E3,3.9408203E2,1.17944336E2,1.03982666E2,1.1893866E2,1.2449396E2,8.5232227E2,4.2748956E2,1.9047485E2,7.2930273E2,2.0815625E2,1.0096826E2,1.516853E2,4.3461542E2,4.8272974E2,1.7229724E2,9.834668E1,1.1316748E2,1.2693359E1,1.426726E2,3.0465698E1,3.8679386E1,7.8743286E1,8.177698E1,3.0149582E1,1.085473E2,7.7588416E2,1.672634E2,7.948947E1,1.3300992E2,1.0104199E2,1.492622E2,3.3179785E2,6.070874E2,1.3692188E2,1.03493164E2,1.9563232E1,1.4644019E2,6.0973877E1,6.885397E2,3.9895148E2,4.4325482E2,1.1618884E2,2.310946E2,1.9528198E-1,1.0975781E2,1.3240845E1,2.3083496E1,3.6567505E1,1.42265625E1,5.410156E-1,0E0,0E0,0E0,0E0,0E0,0E0,0E0,0E0,0E0,0E0,0E0,0E0,0E0,0E0,0E0,0E0,0E0,0E0,0E0,0E0,0E0,0E0,0E0,0E0,0E0,0E0,0E0,0E0,0E0,0E0,0E0,0E0,0E0,0E0,0E0,0E0,0E0,0E0,0E0,0E0,0E0,0E0,0E0,0E0,0E0,0E0,0E0,0E0,0E0,0E0,0E0,0E0,0E0,0E0,0E0,0E0,0E0,0E0,0E0,0E0,0E0,0E0,0E0,0E0],"parents":[2147483647,0,0,1,1,2,2,3,3,4,4,5,5,6,6,7,7,8,8,9,9,10,10,11,11,12,12,13,13,14,14,15,15,16,16,17,17,18,18,19,19,20,20,21,21,22,22,23,23,24,24,25,25,26,26,27,27,28,28,29,29,30,30,31,31,32,32,33,33,34,34,35,35,36,36,37,37,38,38,39,39,40,40,41,41,42,42,43,43,44,44,45,45,46,46,47,47,48,48,49,49,50,50,51,51,52,52,53,53,54,54,55,55,56,56,57,57,58,58,59,59,60,60,61,61,62,62],"right_children":[2,4,6,8,10,12,14,16,18,20,22,24,26,28,30,32,34,36,38,40,42,44,46,48,50,52,54,56,58,60,62,64,66,68,70,72,74,76,78,80,82,84,86,88,90,92,94,96,98,100,102,104,106,108,110,112,114,116,118,120,122,124,126,-1,-1,-1,-1,-1,-1,-1,-1,-1,-1,-1,-1,-1,-1,-1,-1,-1,-1,-1,-1,-1,-1,-1,-1,-1,-1,-1,-1,-1,-1,-1,-1,-1,-1,-1,-1,-1,-1,-1,-1,-1,-1,-1,-1,-1,-1,-1,-1,-1,-1,-1,-1,-1,-1,-1,-1,-1,-1,-1,-1,-1,-1,-1,-1],"split_conditions":[2.6400757E-1,1E0,7.473286E-1,-5.7E-1,1E0,1E0,3.2E-1,1E0,1E0,2E0,2E0,-6.8E-1,1E-2,1.1E-1,1.02E0,2.84E0,1.854E3,1E0,1.43E0,-4.9E-1,-6.7E-1,-4.5E-1,2.12E0,2.29E0,3.69E0,4.1E-1,1.08E0,1.08E0,2.23E0,2E0,1.4E0,1.16E0,4.6E-1,2.85E0,-4.7E-1,1E0,1.41E0,3.14E0,1E0,9.09E1,1.85E0,8.97E1,6E-1,1.974E3,2E0,9.15E1,-4.7E-1,8.96E1,3E0,5E-1,1.23E0,1.57E0,3.12E0,3.03E0,4.9E-1,3.9E-1,3.96E0,1.4E0,1.02E0,-1.03E0,1E-2,2E0,1.4E1,-2.7234811E-2,-5.4984003E-2,-6.937967E-2,-4.8076965E-2,1.5605317E-2,-2.9593885E-2,-5.1380254E-2,-2.163122E-2,-2.0220382E-2,-5.9537232E-2,-3.9462503E-2,-2.6294522E-3,-2.585103E-2,-6.0223926E-2,1.0009438E-2,-4.921895E-2,1.9776828E-3,-2.2616977E-2,1.7917654E-2,-5.5803813E-2,3.050221E-2,6.718807E-3,4.3421544E-2,2.6930222E-2,4.385225E-2,1.75255E-2,3.199901E-2,5.0591268E-2,6.2792175E-2,2.217444E-2,5.1898327E-2,6.644463E-2,-3.8977716E-2,-6.2482208E-2,-5.9900906E-2,-7.04022E-2,-2.3132531E-2,-4.0799856E-2,-6.482873E-2,-4.0787872E-2,2.307684E-2,-5.526451E-2,-2.7029574E-2,3.970317E-3,-1.2566167E-2,-4.849449E-2,-3.3929132E-2,-5.622643E-2,-4.7495127E-2,-1.8828183E-2,-7.4865125E-2,-2.2013543E-2,-4.4976972E-2,-6.2285125E-2,-7.325119E-2,-5.986613E-2,-6.876749E-2,-5.9207518E-2,-3.7505414E-2,-5.2792676E-2,-6.869068E-2,-6.1212946E-2,-7.15984E-2,-3.255186E-2],"split_indices":[44,32,44,34,40,32,27,40,40,32,32,34,41,41,44,28,26,7,29,34,34,34,28,28,28,27,27,28,28,32,44,27,27,28,27,13,29,30,13,25,29,25,34,26,28,25,34,25,28,27,27,28,28,28,44,28,30,44,35,34,41,32,51,0,0,0,0,0,0,0,0,0,0,0,0,0,0,0,0,0,0,0,0,0,0,0,0,0,0,0,0,0,0,0,0,0,0,0,0,0,0,0,0,0,0,0,0,0,0,0,0,0,0,0,0,0,0,0,0,0,0,0,0,0,0,0,0],"split_type":[0,0,0,0,0,0,0,0,0,0,0,0,0,0,0,0,0,0,0,0,0,0,0,0,0,0,0,0,0,0,0,0,0,0,0,0,0,0,0,0,0,0,0,0,0,0,0,0,0,0,0,0,0,0,0,0,0,0,0,0,0,0,0,0,0,0,0,0,0,0,0,0,0,0,0,0,0,0,0,0,0,0,0,0,0,0,0,0,0,0,0,0,0,0,0,0,0,0,0,0,0,0,0,0,0,0,0,0,0,0,0,0,0,0,0,0,0,0,0,0,0,0,0,0,0,0,0],"sum_hessian":[1.2416279E5,7.952295E4,4.4639836E4,3.4620242E4,4.490271E4,2.6924605E4,1.7715232E4,7.1993965E3,2.7420848E4,1.3457815E4,3.1444895E4,9.696445E3,1.722816E4,8.296132E3,9.419101E3,3.4928176E3,3.7065789E3,5.5263125E3,2.1894535E4,7.074591E3,6.383225E3,1.7476758E4,1.3968137E4,3.8648596E3,5.831586E3,7.6190264E3,9.609133E3,3.2822668E3,5.013865E3,4.605951E3,4.8131494E3,2.5590579E3,9.3375964E2,3.2781058E2,3.3787683E3,4.147316E3,1.3789968E3,1.2285024E3,2.0666031E4,2.8925176E3,4.182073E3,2.3645537E3,4.0186714E3,3.936257E3,1.35405E4,4.2729194E3,9.695218E3,1.9388456E3,1.926014E3,4.7535947E3,1.0779912E3,3.2912422E3,4.327784E3,7.203871E3,2.4052617E3,3.060244E3,2.2202289E2,4.0531045E3,9.6076044E2,2.9880762E3,1.6178749E3,3.0228853E3,1.7902643E3,1.9500732E3,6.089846E2,2.3026637E2,7.034932E2,2.7148465E2,5.6325916E1,2.3913077E2,3.1396375E3,4.0112317E3,1.3608409E2,5.7007313E1,1.3219895E3,9.219417E2,3.0656073E2,2.009843E4,5.676018E2,1.7517521E3,1.1407655E3,4.1461274E3,3.594579E1,1.2679967E3,1.0965571E3,2.5444248E3,1.4742466E3,6.43573E2,3.2926838E3,3.1276748E3,1.0412825E4,2.9299185E3,1.3430011E3,2.0839866E3,7.611231E3,1.125577E3,8.132686E2,9.737792E2,9.522348E2,2.1325564E3,2.621038E3,5.760557E2,5.0193546E2,2.982622E3,3.0862E2,1.7248917E3,2.6028926E3,6.208367E3,9.955041E2,1.3847351E3,1.02052655E3,1.0961144E3,1.9641295E3,2.2083896E2,1.1839194E0,2.6276885E3,1.4254161E3,6.486369E2,3.1212354E2,1.0257561E3,1.96232E3,7.2131476E2,8.965601E2,1.8703777E3,1.1525076E3,1.7870117E3,3.2525938E0],"tree_param":{"num_deleted":"0","num_feature":"52","num_nodes":"127","size_leaf_vector":"1"}},{"base_weights":[-2.676433E-3,3.6023143E-1,-7.469955E-1,-1.17906176E-1,7.27202E-1,-5.127668E-1,-1.0560309E0,-5.1044667E-1,4.1501265E-2,3.117087E-1,9.377253E-1,-7.224506E-1,-9.095756E-2,-9.261331E-1,-1.2579546E0,-7.7349824E-1,-3.9345562E-1,-6.3161165E-1,9.161432E-2,1.0295561E-1,5.4186445E-1,7.78464E-1,1.138829E0,-9.9773085E-1,-5.67718E-1,1.8431866E-1,-3.1829938E-1,-7.746456E-1,-1.1310807E0,-1.1612109E0,-1.3651811E0,-6.8423474E-1,-1.1172608E0,-4.7319698E-1,-1.5744567E-1,-4.924068E-1,-1.0948943E0,1.2164207E-1,-9.8893934E-1,-2.8407076E-1,2.1995266E-1,6.801837E-1,3.0843353E-1,5.969418E-2,8.068961E-1,9.555315E-1,1.2200758E0,-8.353124E-1,-1.2416934E0,-7.6886034E-1,-3.435107E-1,2.6102096E-1,-4.3463364E-1,-1.3880458E-1,-6.526657E-1,-6.741279E-1,-1.2776074E0,-1.0622908E0,-1.318178E0,-1.2753268E0,-9.532309E-1,-1.4025893E0,-1.3093387E0,-2.6727015E-2,-4.480065E-2,-4.910333E-2,-6.080162E-2,-2.2345927E-2,-6.1985113E-2,-6.217388E-3,-3.4772333E-2,-3.282157E-2,-3.3481077E-3,-6.851616E-2,-3.9250273E-2,1.9340826E-2,-1.1019231E-3,-6.992077E-2,-4.508641E-2,-2.1862376E-2,1.0817416E-2,1.1574481E-2,-6.850191E-2,1.5753526E-2,3.6933377E-2,2.461803E-2,3.0162868E-3,1.3183965E-2,-4.686053E-2,2.9201359E-2,4.365284E-2,6.043124E-2,2.0597102E-2,6.264407E-2,5.1455703E-2,-3.4744892E-2,-6.340676E-2,-3.589901E-2,-6.3550174E-2,-3.4174535E-2,-5.3776074E-2,-1.4297785E-2,-5.0416704E-2,-8.715357E-3,1.7174529E-2,-1.7964564E-2,-5.1467605E-2,-1.5866765E-3,-4.221347E-2,-1.9984884E-2,-4.3071695E-2,-4.2974796E-2,-2.1820085E-2,-4.346863E-2,-6.692732E-2,-4.412801E-2,-6.0139455E-2,-6.2571265E-2,-7.0672534E-2,-6.898402E-2,-5.9459098E-2,-5.665806E-2,-4.033787E-2,-7.084965E-2,-6.553517E-2,-6.070764E-2,-6.925821E-2],"categories":[],"categories_nodes":[],"categories_segments":[],"categories_sizes":[],"default_left":[0,0,0,0,0,0,0,0,0,0,0,0,0,0,0,0,0,0,0,0,0,0,0,0,0,0,0,0,0,0,0,0,0,0,0,0,0,0,0,0,0,0,0,0,0,0,0,0,0,0,0,0,0,0,0,0,0,0,0,0,0,0,0,0,0,0,0,0,0,0,0,0,0,0,0,0,0,0,0,0,0,0,0,0,0,0,0,0,0,0,0,0,0,0,0,0,0,0,0,0,0,0,0,0,0,0,0,0,0,0,0,0,0,0,0,0,0,0,0,0,0,0,0,0,0,0,0],"id":9,"left_children":[1,3,5,7,9,11,13,15,17,19,21,23,25,27,29,31,33,35,37,39,41,43,45,47,49,51,53,55,57,59,61,63,65,67,69,71,73,75,77,79,81,83,85,87,89,91,93,95,97,99,101,103,105,107,109,111,113,115,117,119,121,123,125,-1,-1,-1,-1,-1,-1,-1,-1,-1,-1,-1,-1,-1,-1,-1,-1,-1,-1,-1,-1,-1,-1,-1,-1,-1,-1,-1,-1,-1,-1,-1,-1,-1,-1,-1,-1,-1,-1,-1,-1,-1,-1,-1,-1,-1,-1,-1,-1,-1,-1,-1,-1,-1,-1,-1,-1,-1,-1,-1,-1,-1,-1,-1,-1],"loss_changes":[3.330266E4,1.4542281E4,2.924498E3,2.2520205E3,4.101297E3,2.0332178E3,4.5579297E2,3.1957202E2,8.6346576E2,7.576455E2,9.9586914E2,6.5349365E2,4.77837E2,3.2838965E2,6.913281E1,9.738794E1,1.3536157E2,1.1385028E2,7.731143E2,3.7457922E2,2.4196533E2,3.549414E2,2.036289E2,2.1784717E2,4.431504E2,1.6408359E2,2.5087921E2,3.0759448E2,5.6583496E1,8.400049E1,4.90625E0,8.010364E1,7.5893555E0,1.0778381E2,3.2302723E1,9.526053E1,3.3833527E1,8.8318866E2,2.1745789E1,1.4729375E2,1.1682904E2,1.0031738E2,1.2740588E2,1.348788E2,2.4587402E2,5.8119336E2,5.838086E1,2.0084814E2,3.2946045E1,1.3492554E2,1.7769208E2,1.10407196E2,1.6710335E1,2.0559732E2,7.678204E1,2.2379639E2,2.4089844E1,8.225E1,5.9069824E0,1.9174072E1,3.271582E1,6.826172E-1,7.772217E0,0E0,0E0,0E0,0E0,0E0,0E0,0E0,0E0,0E0,0E0,0E0,0E0,0E0,0E0,0E0,0E0,0E0,0E0,0E0,0E0,0E0,0E0,0E0,0E0,0E0,0E0,0E0,0E0,0E0,0E0,0E0,0E0,0E0,0E0,0E0,0E0,0E0,0E0,0E0,0E0,0E0,0E0,0E0,0E0,0E0,0E0,0E0,0E0,0E0,0E0,0E0,0E0,0E0,0E0,0E0,0E0,0E0,0E0,0E0,0E0,0E0,0E0,0E0,0E0],"parents":[2147483647,0,0,1,1,2,2,3,3,4,4,5,5,6,6,7,7,8,8,9,9,10,10,11,11,12,12,13,13,14,14,15,15,16,16,17,17,18,18,19,19,20,20,21,21,22,22,23,23,24,24,25,25,26,26,27,27,28,28,29,29,30,30,31,31,32,32,33,33,34,34,35,35,36,36,37,37,38,38,39,39,40,40,41,41,42,42,43,43,44,44,45,45,46,46,47,47,48,48,49,49,50,50,51,51,52,52,53,53,54,54,55,55,56,56,57,57,58,58,59,59,60,60,61,61,62,62],"right_children":[2,4,6,8,10,12,14,16,18,20,22,24,26,28,30,32,34,36,38,40,42,44,46,48,50,52,54,56,58,60,62,64,66,68,70,72,74,76,78,80,82,84,86,88,90,92,94,96,98,100,102,104,106,108,110,112,114,116,118,120,122,124,126,-1,-1,-1,-1,-1,-1,-1,-1,-1,-1,-1,-1,-1,-1,-1,-1,-1,-1,-1,-1,-1,-1,-1,-1,-1,-1,-1,-1,-1,-1,-1,-1,-1,-1,-1,-1,-1,-1,-1,-1,-1,-1,-1,-1,-1,-1,-1,-1,-1,-1,-1,-1,-1,-1,-1,-1,-1,-1,-1,-1,-1,-1,-1,-1],"split_conditions":[3.1780496E-1,1E0,7.473286E-1,1E0,1E0,2E0,1.87E0,-1E-2,1.44E0,2E0,2E0,-0E0,1E-2,1.19E0,1.03E0,2.92E0,1E0,3.16E0,1E0,-7E-2,8E-2,1.42E0,2.12E0,9.08E1,1E0,3.97E0,9.19E1,9.11E1,3.8E-1,2E0,2E0,9.14E1,3.14E0,1E0,3.63E0,1.42E0,1.42E0,1E0,-2E0,1.11E0,1.86E0,1.37E0,9.17E1,3.14E0,2E0,9.15E1,1.19E0,2.68E0,-1.8E-1,3.66E0,3.93E0,9.7E-1,1.08E0,2.93E0,4.7434166E-1,2E0,-9E-2,4.4E-1,3E-2,-1E-2,-0E0,8.2E-1,1.2656224E0,-2.6727015E-2,-4.480065E-2,-4.910333E-2,-6.080162E-2,-2.2345927E-2,-6.1985113E-2,-6.217388E-3,-3.4772333E-2,-3.282157E-2,-3.3481077E-3,-6.851616E-2,-3.9250273E-2,1.9340826E-2,-1.1019231E-3,-6.992077E-2,-4.508641E-2,-2.1862376E-2,1.0817416E-2,1.1574481E-2,-6.850191E-2,1.5753526E-2,3.6933377E-2,2.461803E-2,3.0162868E-3,1.3183965E-2,-4.686053E-2,2.9201359E-2,4.365284E-2,6.043124E-2,2.0597102E-2,6.264407E-2,5.1455703E-2,-3.4744892E-2,-6.340676E-2,-3.589901E-2,-6.3550174E-2,-3.4174535E-2,-5.3776074E-2,-1.4297785E-2,-5.0416704E-2,-8.715357E-3,1.7174529E-2,-1.7964564E-2,-5.1467605E-2,-1.5866765E-3,-4.221347E-2,-1.9984884E-2,-4.3071695E-2,-4.2974796E-2,-2.1820085E-2,-4.346863E-2,-6.692732E-2,-4.412801E-2,-6.0139455E-2,-6.2571265E-2,-7.0672534E-2,-6.898402E-2,-5.9459098E-2,-5.665806E-2,-4.033787E-2,-7.084965E-2,-6.553517E-2,-6.070764E-2,-6.925821E-2],"split_indices":[44,32,44,40,40,32,28,42,29,32,32,42,41,44,44,28,7,30,13,42,41,29,28,25,32,28,25,25,38,32,32,25,28,13,28,29,29,4,51,38,29,28,25,30,28,25,38,28,38,28,28,28,38,28,44,32,38,41,41,42,42,42,44,0,0,0,0,0,0,0,0,0,0,0,0,0,0,0,0,0,0,0,0,0,0,0,0,0,0,0,0,0,0,0,0,0,0,0,0,0,0,0,0,0,0,0,0,0,0,0,0,0,0,0,0,0,0,0,0,0,0,0,0,0,0,0,0],"split_type":[0,0,0,0,0,0,0,0,0,0,0,0,0,0,0,0,0,0,0,0,0,0,0,0,0,0,0,0,0,0,0,0,0,0,0,0,0,0,0,0,0,0,0,0,0,0,0,0,0,0,0,0,0,0,0,0,0,0,0,0,0,0,0,0,0,0,0,0,0,0,0,0,0,0,0,0,0,0,0,0,0,0,0,0,0,0,0,0,0,0,0,0,0,0,0,0,0,0,0,0,0,0,0,0,0,0,0,0,0,0,0,0,0,0,0,0,0,0,0,0,0,0,0,0,0,0,0],"sum_hessian":[1.23286734E5,8.2878266E4,4.0408465E4,3.598845E4,4.6889816E4,2.2987838E4,1.7420627E4,1.0393146E4,2.5595303E4,1.5769425E4,3.1120395E4,1.5354376E4,7.633462E3,1.06043955E4,6.8162324E3,3.1976638E3,7.1954824E3,1.7727202E3,2.3822584E4,8.269957E3,7.499468E3,1.7369627E4,1.3750767E4,5.523043E3,9.831333E3,3.452817E3,4.180645E3,6.1002007E3,4.5041943E3,3.58949E3,3.2267422E3,2.540875E3,6.5678894E2,5.3775493E3,1.8179327E3,1.364719E3,4.080012E2,2.3179336E4,6.432483E2,1.9193423E3,6.3506143E3,4.707895E3,2.7915728E3,6.6105646E2,1.670857E4,4.2270547E3,9.523712E3,3.3183025E3,2.2047405E3,5.1809434E3,4.6503896E3,3.0726267E3,3.8019016E2,2.7212412E3,1.4594037E3,5.0860796E3,1.0141211E3,3.2982178E3,1.2059767E3,2.3144495E3,1.2750405E3,1.9178667E3,1.3088755E3,1.490703E3,1.050172E3,2.818914E2,3.7489755E2,5.20083E3,1.7671936E2,1.7137346E3,1.0419812E2,9.84583E2,3.8013602E2,2.1419919E2,1.9380199E2,8.1451274E3,1.5034207E4,1.1030532E2,5.3294293E2,1.4696218E3,4.4972052E2,6.3057144E3,4.48998E1,6.508766E2,4.0570186E3,1.6025713E3,1.1890013E3,5.493789E2,1.1167756E2,3.8269458E3,1.2881625E4,2.8833525E3,1.343702E3,8.1227334E3,1.4009785E3,2.507451E3,8.108515E2,1.1820173E2,2.0865386E3,4.0552537E3,1.12569E3,4.281189E3,3.6920047E2,4.8919974E2,2.583427E3,3.3886493E2,4.132523E1,2.3635598E3,3.5768137E2,6.6116876E2,7.98235E2,2.856273E3,2.229807E3,1.3370265E2,8.8041846E2,1.4502654E3,1.8479524E3,7.174376E2,4.885391E2,1.0398232E3,1.2746263E3,5.691509E2,7.0588965E2,1.6455044E3,2.7236234E2,5.878918E2,7.2098364E2],"tree_param":{"num_deleted":"0","num_feature":"52","num_nodes":"127","size_leaf_vector":"1"}},{"base_weights":[-1.2993416E-3,4.480375E-1,-5.4887086E-1,6.7359316E-1,-1.24325894E-1,-2.4552043E-1,-9.0695256E-1,4.8892546E-1,1.0268098E0,-4.491334E-1,1.9104356E-2,-4.5878443E-1,2.3121056E-1,-7.194121E-1,-1.0786238E0,5.289419E-1,-1.0238377E0,5.8991164E-1,1.0861487E0,-6.491991E-1,-3.1036377E-1,-2.780716E-1,1.12408675E-1,-7.36151E-1,-2.733502E-1,-1.839501E-2,4.0004376E-1,-9.092073E-1,-3.8397804E-1,-8.777453E-1,-1.2183563E0,1.402001E-1,6.5425974E-1,-1.3692808E0,-9.5296913E-1,-4.9830654E-1,6.375147E-1,1.1302619E0,6.5770346E-1,-5.9594977E-1,-1.0177745E0,-9.6786547E-1,-2.7578232E-1,-3.6707614E-2,-6.829826E-1,-2.3281753E-1,2.650737E-1,-5.512974E-1,-9.9287957E-1,-1.1769978E-1,-5.697481E-1,1.8941176E-1,-3.4963304E-1,5.6312627E-1,1.7287356E-1,-6.546055E-1,-1.0695659E0,-9.110341E-2,-5.6728005E-1,-7.852835E-1,-1.2687302E0,-1.1220673E0,-1.3025707E0,-3.1778668E-3,1.4385886E-2,1.8205812E-2,3.7725758E-2,-6.877648E-2,-2.0742578E-2,-6.0883503E-2,-4.272011E-2,-1.0696403E-2,-8.354025E-2,4.0665966E-2,2.0429088E-2,4.435515E-2,6.012785E-2,2.051654E-2,4.6170052E-2,-2.45039E-2,-4.062214E-2,-6.5192275E-2,-4.2139348E-2,-4.212338E-2,-7.34316E-2,-2.0008905E-2,-5.0279493E-3,-4.0239472E-2,1.3103242E-3,-4.0260375E-2,-2.1847352E-2,-5.361053E-4,-3.3971917E-2,1.4360297E-2,-6.270425E-2,-1.9518891E-2,-5.416294E-2,-4.360796E-2,-5.7351805E-2,6.2163314E-3,-1.2175922E-2,-2.6987744E-2,-5.0825387E-2,1.4488828E-2,-3.5221834E-2,-1.5707609E-3,-3.431158E-2,5.2716546E-3,3.1929474E-2,-3.1448924E-3,2.3995584E-2,-1.8010808E-2,-4.8782002E-2,-5.909226E-2,-4.6032265E-2,3.2380165E-3,-4.5627534E-2,-3.624481E-2,-1.8010272E-2,-2.9886017E-2,-5.2892614E-2,-5.6851156E-2,-7.080079E-2,-4.7557272E-2,-6.079304E-2,-5.9207316E-2,-6.645884E-2],"categories":[],"categories_nodes":[],"categories_segments":[],"categories_sizes":[],"default_left":[0,0,0,0,0,0,0,0,0,0,0,0,0,0,0,0,0,0,0,0,0,0,0,0,0,0,0,0,0,0,0,0,0,0,0,0,0,0,0,0,0,0,0,0,0,0,0,0,0,0,0,0,0,0,0,0,0,0,0,0,0,0,0,0,0,0,0,0,0,0,0,0,0,0,0,0,0,0,0,0,0,0,0,0,0,0,0,0,0,0,0,0,0,0,0,0,0,0,0,0,0,0,0,0,0,0,0,0,0,0,0,0,0,0,0,0,0,0,0,0,0,0,0,0,0,0,0],"id":10,"left_children":[1,3,5,7,9,11,13,15,17,19,21,23,25,27,29,31,33,35,37,39,41,43,45,47,49,51,53,55,57,59,61,63,65,67,69,71,73,75,77,79,81,83,85,87,89,91,93,95,97,99,101,103,105,107,109,111,113,115,117,119,121,123,125,-1,-1,-1,-1,-1,-1,-1,-1,-1,-1,-1,-1,-1,-1,-1,-1,-1,-1,-1,-1,-1,-1,-1,-1,-1,-1,-1,-1,-1,-1,-1,-1,-1,-1,-1,-1,-1,-1,-1,-1,-1,-1,-1,-1,-1,-1,-1,-1,-1,-1,-1,-1,-1,-1,-1,-1,-1,-1,-1,-1,-1,-1,-1,-1],"loss_changes":[3.0101893E4,8.675537E3,5.989742E3,3.1437168E3,8.850172E2,3.0354326E3,8.134492E2,1.9168667E3,4.283828E2,1.6135547E2,3.6544714E2,1.0607441E3,3.8889975E2,7.693096E2,3.694912E2,1.5023721E3,1.8675293E1,1.02939575E2,2.7460156E2,4.6149475E1,7.790033E1,3.077592E2,5.2870245E2,3.9165967E2,5.7034705E2,2.564288E2,2.038424E2,3.1449268E2,2.3456726E2,1.9492285E2,6.1651367E1,2.2604503E2,6.7813574E2,2.4435425E-1,1.6714539E1,2.7513367E1,7.607495E1,2.3110547E2,8.916382E1,4.7367737E1,1.3884705E1,9.524551E0,7.118048E1,9.542026E1,3.5015747E1,3.0511658E2,2.342139E2,4.1107605E2,6.3359375E1,2.469356E2,5.649414E1,2.0557483E2,1.5380548E2,1.1059473E2,1.6666296E2,2.8184863E2,7.8086914E1,2.1560774E2,8.746399E1,2.2357495E2,1.8465088E1,5.717383E1,1.148877E1,0E0,0E0,0E0,0E0,0E0,0E0,0E0,0E0,0E0,0E0,0E0,0E0,0E0,0E0,0E0,0E0,0E0,0E0,0E0,0E0,0E0,0E0,0E0,0E0,0E0,0E0,0E0,0E0,0E0,0E0,0E0,0E0,0E0,0E0,0E0,0E0,0E0,0E0,0E0,0E0,0E0,0E0,0E0,0E0,0E0,0E0,0E0,0E0,0E0,0E0,0E0,0E0,0E0,0E0,0E0,0E0,0E0,0E0,0E0,0E0,0E0,0E0,0E0,0E0],"parents":[2147483647,0,0,1,1,2,2,3,3,4,4,5,5,6,6,7,7,8,8,9,9,10,10,11,11,12,12,13,13,14,14,15,15,16,16,17,17,18,18,19,19,20,20,21,21,22,22,23,23,24,24,25,25,26,26,27,27,28,28,29,29,30,30,31,31,32,32,33,33,34,34,35,35,36,36,37,37,38,38,39,39,40,40,41,41,42,42,43,43,44,44,45,45,46,46,47,47,48,48,49,49,50,50,51,51,52,52,53,53,54,54,55,55,56,56,57,57,58,58,59,59,60,60,61,61,62,62],"right_children":[2,4,6,8,10,12,14,16,18,20,22,24,26,28,30,32,34,36,38,40,42,44,46,48,50,52,54,56,58,60,62,64,66,68,70,72,74,76,78,80,82,84,86,88,90,92,94,96,98,100,102,104,106,108,110,112,114,116,118,120,122,124,126,-1,-1,-1,-1,-1,-1,-1,-1,-1,-1,-1,-1,-1,-1,-1,-1,-1,-1,-1,-1,-1,-1,-1,-1,-1,-1,-1,-1,-1,-1,-1,-1,-1,-1,-1,-1,-1,-1,-1,-1,-1,-1,-1,-1,-1,-1,-1,-1,-1,-1,-1,-1,-1,-1,-1,-1,-1,-1,-1,-1,-1,-1,-1,-1],"split_conditions":[1.3E-1,1E0,5.6E-1,1E0,-3.7E-1,1E0,8.7E-1,1E0,-7.1E-1,-6.7E-1,2.01E0,-5.8E-1,-6.5E-1,1E0,1.9E-1,-4.7E-1,-2E0,1.42E0,7E-1,3.08E0,1.42E0,7.3E-1,4.2E-1,9.08E1,1E0,9.09E1,4.9E-1,1.24E0,-5.4E-1,1.43E0,1.12E0,-7.2E-1,2E0,1.87E0,1.52E0,3.14E0,9.13E1,1.94E0,-9.7E-1,1.03E0,2.7E-1,3.17E0,1E0,1.43E0,1.87E0,2.72E0,1.85E0,2.68E0,3.330165E-1,4.1E-1,3.81E0,3.02E0,6.3E-1,1.16E0,-8.8E-1,3.1E-1,-2E-1,6.3E-1,-5.3E-1,1.3713132E0,2.8E0,6.1E-1,3.6E-1,-3.1778668E-3,1.4385886E-2,1.8205812E-2,3.7725758E-2,-6.877648E-2,-2.0742578E-2,-6.0883503E-2,-4.272011E-2,-1.0696403E-2,-8.354025E-2,4.0665966E-2,2.0429088E-2,4.435515E-2,6.012785E-2,2.051654E-2,4.6170052E-2,-2.45039E-2,-4.062214E-2,-6.5192275E-2,-4.2139348E-2,-4.212338E-2,-7.34316E-2,-2.0008905E-2,-5.0279493E-3,-4.0239472E-2,1.3103242E-3,-4.0260375E-2,-2.1847352E-2,-5.361053E-4,-3.3971917E-2,1.4360297E-2,-6.270425E-2,-1.9518891E-2,-5.416294E-2,-4.360796E-2,-5.7351805E-2,6.2163314E-3,-1.2175922E-2,-2.6987744E-2,-5.0825387E-2,1.4488828E-2,-3.5221834E-2,-1.5707609E-3,-3.431158E-2,5.2716546E-3,3.1929474E-2,-3.1448924E-3,2.3995584E-2,-1.8010808E-2,-4.8782002E-2,-5.909226E-2,-4.6032265E-2,3.2380165E-3,-4.5627534E-2,-3.624481E-2,-1.8010272E-2,-2.9886017E-2,-5.2892614E-2,-5.6851156E-2,-7.080079E-2,-4.7557272E-2,-6.079304E-2,-5.9207316E-2,-6.645884E-2],"split_indices":[44,4,44,39,34,39,44,13,34,34,28,34,34,39,27,34,51,29,34,28,29,27,27,25,4,25,34,28,43,28,44,34,28,29,29,30,25,28,35,27,38,30,48,29,28,28,29,28,44,27,28,28,35,28,35,27,34,27,34,44,28,27,27,0,0,0,0,0,0,0,0,0,0,0,0,0,0,0,0,0,0,0,0,0,0,0,0,0,0,0,0,0,0,0,0,0,0,0,0,0,0,0,0,0,0,0,0,0,0,0,0,0,0,0,0,0,0,0,0,0,0,0,0,0,0,0,0],"split_type":[0,0,0,0,0,0,0,0,0,0,0,0,0,0,0,0,0,0,0,0,0,0,0,0,0,0,0,0,0,0,0,0,0,0,0,0,0,0,0,0,0,0,0,0,0,0,0,0,0,0,0,0,0,0,0,0,0,0,0,0,0,0,0,0,0,0,0,0,0,0,0,0,0,0,0,0,0,0,0,0,0,0,0,0,0,0,0,0,0,0,0,0,0,0,0,0,0,0,0,0,0,0,0,0,0,0,0,0,0,0,0,0,0,0,0,0,0,0,0,0,0,0,0,0,0,0,0],"sum_hessian":[1.223415E5,6.719857E4,5.5142926E4,4.820276E4,1.8995812E4,2.9853818E4,2.5289107E4,3.165524E4,1.6547521E4,5.8181304E3,1.3177682E4,2.0626611E4,9.227207E3,1.2088423E4,1.3200684E4,3.084009E4,8.151494E2,1.9800234E3,1.4567498E4,2.381302E3,3.4368284E3,3.1483018E3,1.002938E4,8.263445E3,1.2363166E4,3.7233867E3,5.503821E3,7.7190957E3,4.369327E3,5.418446E3,7.782238E3,7.518735E3,2.3321355E4,1.356437E2,6.795057E2,8.258731E1,1.8974362E3,1.3206142E4,1.3613568E3,2.082983E3,2.98319E2,1.7038028E2,3.266448E3,1.9731904E3,1.1751113E3,3.0750798E3,6.9543E3,4.806061E3,3.4573843E3,8.1071655E3,4.2560005E3,2.2882498E3,1.435137E3,3.202971E3,2.3008499E3,2.9849556E3,4.73414E3,1.6825287E3,2.6867983E3,4.384572E3,1.033874E3,3.637513E3,4.144725E3,3.1577244E3,4.3610103E3,5.990169E3,1.7331186E4,1.3432304E2,1.3206551E0,1.812924E2,4.982133E2,6.741814E1,1.5169179E1,1.0718087E3,8.2562744E2,3.029597E3,1.0176544E4,7.063072E2,6.550496E2,1.4010769E3,6.8190607E2,1.1077389E2,1.8754512E2,1.3840453E2,3.1975767E1,1.9095342E3,1.3569138E3,1.4849606E2,1.8246945E3,7.83576E2,3.9153537E2,2.054462E3,1.0206179E3,6.855239E3,9.90613E1,3.6911982E3,1.1148628E3,1.9427053E3,1.5146791E3,2.7729995E3,5.334166E3,3.9903184E3,2.6568216E2,2.0578608E3,2.3038887E2,7.382727E2,6.9686426E2,4.5368958E2,2.7492812E3,1.3019166E3,9.989332E2,1.5582028E3,1.4267529E3,2.6951692E3,2.0389707E3,1.4149695E3,2.6755917E2,1.5241677E3,1.1626307E3,2.5991846E3,1.7853873E3,5.5040515E2,4.8346887E2,1.2927837E3,2.3447292E3,7.6870496E2,3.37602E3],"tree_param":{"num_deleted":"0","num_feature":"52","num_nodes":"127","size_leaf_vector":"1"}},{"base_weights":[-3.8920445E-4,3.2276726E-1,-7.0611316E-1,-1.18443124E-1,6.6385263E-1,-4.9473986E-1,-1.0066333E0,-5.682953E-1,5.0861603E-3,8.630982E-1,2.5567657E-1,-6.9029963E-1,-1.14697374E-1,-7.98795E-1,-1.1453987E0,-4.345219E-1,-7.99992E-1,-3.2715124E-1,1.0567008E-1,7.1379584E-1,1.0547134E0,5.4059684E-2,4.756679E-1,-9.3629414E-1,-5.351307E-1,1.4275898E-1,-3.291453E-1,-5.320835E-1,-1.0033996E0,-1.043044E0,-1.2606418E0,1.6562717E-1,-4.8281413E-1,-6.940223E-1,-1.0866228E0,-4.0451154E-1,-1.0005706E-1,-6.2948936E-1,1.4890471E-1,3.5869908E-1,8.2296985E-1,7.8292155E-1,1.1133478E0,-2.0999126E-1,2.4113554E-1,2.6148963E-1,6.125295E-1,-7.591879E-1,-1.1799558E0,-2.8050634E-1,-6.889707E-1,2.1974751E-1,-4.1284612E-1,-1.4959116E-1,-6.3872087E-1,-4.7857022E-1,-1.3880717E0,-9.517358E-1,-1.3595911E0,-1.1535615E0,-8.4862196E-1,-1.2059433E0,-1.330055E0,1.45235015E-2,-3.1392734E-2,-4.9557094E-2,-2.2143226E-2,-2.74681E-2,-5.2545387E-2,-6.65309E-2,-5.0089236E-2,-1.8976033E-2,-5.72203E-2,-4.1134905E-2,-3.4360175E-3,-5.7547387E-2,-2.5912363E-2,8.852108E-3,-4.3965165E-2,4.1473687E-2,1.3823037E-2,2.8174752E-2,4.521543E-2,-5.9534595E-3,4.0937435E-2,5.7720393E-2,3.601882E-2,-1.3583055E-3,-2.600258E-2,1.9654071E-2,3.983188E-3,2.2144593E-2,-1.6991604E-3,3.516455E-2,1.8679721E-2,-3.0030182E-2,-5.905856E-2,-3.360988E-2,-6.0731124E-2,-4.6626693E-3,-6.1083753E-2,-2.5149211E-2,-4.1911624E-2,-2.877672E-2,1.3331383E-2,-4.1599568E-2,-4.035385E-3,-2.6142227E-3,-4.2368166E-2,-2.1634756E-2,-4.475653E-2,-3.4618244E-2,-9.987394E-3,-6.96872E-2,-1.4490982E-2,-4.3345477E-2,-6.097246E-2,-6.996098E-2,-5.740061E-2,-4.979746E-2,-6.1712604E-2,-3.1774513E-2,-4.8200432E-2,-5.4847408E-2,-6.405121E-2,-6.654888E-2,-2.9753393E-2],"categories":[],"categories_nodes":[],"categories_segments":[],"categories_sizes":[],"default_left":[0,0,0,0,0,0,0,0,0,0,0,0,0,0,0,0,0,0,0,0,0,0,0,0,0,0,0,0,0,0,0,0,0,0,0,0,0,0,0,0,0,0,0,0,0,0,0,0,0,0,0,0,0,0,0,0,0,0,0,0,0,0,0,0,0,0,0,0,0,0,0,0,0,0,0,0,0,0,0,0,0,0,0,0,0,0,0,0,0,0,0,0,0,0,0,0,0,0,0,0,0,0,0,0,0,0,0,0,0,0,0,0,0,0,0,0,0,0,0,0,0,0,0,0,0,0,0],"id":11,"left_children":[1,3,5,7,9,11,13,15,17,19,21,23,25,27,29,31,33,35,37,39,41,43,45,47,49,51,53,55,57,59,61,63,65,67,69,71,73,75,77,79,81,83,85,87,89,91,93,95,97,99,101,103,105,107,109,111,113,115,117,119,121,123,125,-1,-1,-1,-1,-1,-1,-1,-1,-1,-1,-1,-1,-1,-1,-1,-1,-1,-1,-1,-1,-1,-1,-1,-1,-1,-1,-1,-1,-1,-1,-1,-1,-1,-1,-1,-1,-1,-1,-1,-1,-1,-1,-1,-1,-1,-1,-1,-1,-1,-1,-1,-1,-1,-1,-1,-1,-1,-1,-1,-1,-1,-1,-1,-1],"loss_changes":[2.7679953E4,1.2528502E4,2.4210273E3,2.0171128E3,3.8183398E3,1.6633687E3,4.5304395E2,2.4203809E2,9.517524E2,9.0188086E2,6.831535E2,5.635674E2,4.1994968E2,3.435332E2,1.0999121E2,1.438316E2,8.615344E1,1.1623584E2,6.9495703E2,6.873076E2,2.1929883E2,3.9711877E2,2.1574817E2,2.4571143E2,3.548545E2,1.4795764E2,2.305615E2,1.2481036E2,6.434253E1,1.0652783E2,1.5230957E1,3.6847923E1,9.278882E1,1.0741156E2,1.4616943E1,9.0845215E1,3.8057236E1,6.985257E1,5.975355E2,1.61315E2,2.8578516E2,7.9430786E1,1.8249121E2,1.8897224E2,1.15414215E2,1.5402963E2,9.717798E1,2.2093237E2,4.1490967E1,6.018122E2,1.5641235E2,1.13373505E2,5.8549637E1,1.7836578E2,8.006616E1,1.5363184E2,5.9680176E-1,6.9757324E1,2.1623535E0,3.9305176E1,4.407483E1,1.8975586E1,5.2612305E-1,0E0,0E0,0E0,0E0,0E0,0E0,0E0,0E0,0E0,0E0,0E0,0E0,0E0,0E0,0E0,0E0,0E0,0E0,0E0,0E0,0E0,0E0,0E0,0E0,0E0,0E0,0E0,0E0,0E0,0E0,0E0,0E0,0E0,0E0,0E0,0E0,0E0,0E0,0E0,0E0,0E0,0E0,0E0,0E0,0E0,0E0,0E0,0E0,0E0,0E0,0E0,0E0,0E0,0E0,0E0,0E0,0E0,0E0,0E0,0E0,0E0,0E0,0E0,0E0],"parents":[2147483647,0,0,1,1,2,2,3,3,4,4,5,5,6,6,7,7,8,8,9,9,10,10,11,11,12,12,13,13,14,14,15,15,16,16,17,17,18,18,19,19,20,20,21,21,22,22,23,23,24,24,25,25,26,26,27,27,28,28,29,29,30,30,31,31,32,32,33,33,34,34,35,35,36,36,37,37,38,38,39,39,40,40,41,41,42,42,43,43,44,44,45,45,46,46,47,47,48,48,49,49,50,50,51,51,52,52,53,53,54,54,55,55,56,56,57,57,58,58,59,59,60,60,61,61,62,62],"right_children":[2,4,6,8,10,12,14,16,18,20,22,24,26,28,30,32,34,36,38,40,42,44,46,48,50,52,54,56,58,60,62,64,66,68,70,72,74,76,78,80,82,84,86,88,90,92,94,96,98,100,102,104,106,108,110,112,114,116,118,120,122,124,126,-1,-1,-1,-1,-1,-1,-1,-1,-1,-1,-1,-1,-1,-1,-1,-1,-1,-1,-1,-1,-1,-1,-1,-1,-1,-1,-1,-1,-1,-1,-1,-1,-1,-1,-1,-1,-1,-1,-1,-1,-1,-1,-1,-1,-1,-1,-1,-1,-1,-1,-1,-1,-1,-1,-1,-1,-1,-1,-1,-1,-1,-1,-1,-1],"split_conditions":[3.330165E-1,1E0,7.7162164E-1,-5.7E-1,3E-2,2E0,1.9E-1,1E-1,1E0,2E0,2E0,-7E-1,1E-2,1.9E-1,1.08E0,1.789E3,2.84E0,1E0,1.43E0,-4.5E-1,-5.5E-1,-4.8E-1,-6.4E-1,9.01E1,4.2E-1,3.97E0,9.12E1,1.08E0,2.7E0,2E0,1.4E0,2.96E0,-4.7E-1,1.01E0,4.5E-1,1E0,1.41E0,-5.5E-1,1E0,1.951E3,2E0,1.42E0,6.5E-1,9.13E1,5E-1,9.17E1,9.7E-1,2.54E0,-2E-1,2.69E0,4.809366E-1,1.42E0,1.26E0,2.93E0,5.4E-1,5.6E-1,1E1,1.6274213E0,1.56E0,6E-1,6E-1,6.6E-1,1.4E1,1.45235015E-2,-3.1392734E-2,-4.9557094E-2,-2.2143226E-2,-2.74681E-2,-5.2545387E-2,-6.65309E-2,-5.0089236E-2,-1.8976033E-2,-5.72203E-2,-4.1134905E-2,-3.4360175E-3,-5.7547387E-2,-2.5912363E-2,8.852108E-3,-4.3965165E-2,4.1473687E-2,1.3823037E-2,2.8174752E-2,4.521543E-2,-5.9534595E-3,4.0937435E-2,5.7720393E-2,3.601882E-2,-1.3583055E-3,-2.600258E-2,1.9654071E-2,3.983188E-3,2.2144593E-2,-1.6991604E-3,3.516455E-2,1.8679721E-2,-3.0030182E-2,-5.905856E-2,-3.360988E-2,-6.0731124E-2,-4.6626693E-3,-6.1083753E-2,-2.5149211E-2,-4.1911624E-2,-2.877672E-2,1.3331383E-2,-4.1599568E-2,-4.035385E-3,-2.6142227E-3,-4.2368166E-2,-2.1634756E-2,-4.475653E-2,-3.4618244E-2,-9.987394E-3,-6.96872E-2,-1.4490982E-2,-4.3345477E-2,-6.097246E-2,-6.996098E-2,-5.740061E-2,-4.979746E-2,-6.1712604E-2,-3.1774513E-2,-4.8200432E-2,-5.4847408E-2,-6.405121E-2,-6.654888E-2,-2.9753393E-2],"split_indices":[44,32,44,34,44,32,27,44,40,32,32,34,41,41,44,26,28,7,29,34,34,34,34,25,27,28,25,28,28,32,44,28,27,27,27,13,29,38,13,26,28,29,34,25,34,25,38,28,38,28,44,29,27,28,44,28,51,44,34,27,27,27,51,0,0,0,0,0,0,0,0,0,0,0,0,0,0,0,0,0,0,0,0,0,0,0,0,0,0,0,0,0,0,0,0,0,0,0,0,0,0,0,0,0,0,0,0,0,0,0,0,0,0,0,0,0,0,0,0,0,0,0,0,0,0,0,0],"split_type":[0,0,0,0,0,0,0,0,0,0,0,0,0,0,0,0,0,0,0,0,0,0,0,0,0,0,0,0,0,0,0,0,0,0,0,0,0,0,0,0,0,0,0,0,0,0,0,0,0,0,0,0,0,0,0,0,0,0,0,0,0,0,0,0,0,0,0,0,0,0,0,0,0,0,0,0,0,0,0,0,0,0,0,0,0,0,0,0,0,0,0,0,0,0,0,0,0,0,0,0,0,0,0,0,0,0,0,0,0,0,0,0,0,0,0,0,0,0,0,0,0,0,0,0,0,0,0],"sum_hessian":[1.2136975E5,8.324964E4,3.812011E4,3.6297598E4,4.695204E4,2.2380936E4,1.5739175E4,7.8191777E3,2.847842E4,3.1550152E4,1.5401888E4,1.4776517E4,7.604419E3,6.3040044E3,9.43517E3,4.9589395E3,2.860238E3,6.6176143E3,2.1860807E4,1.7735648E4,1.3814503E4,8.0372144E3,7.364674E3,5.713569E3,9.062948E3,3.4558357E3,4.1485835E3,2.7382163E3,3.5657878E3,5.00233E3,4.4328403E3,3.691327E2,4.5898066E3,2.0907078E3,7.695305E2,4.9355303E3,1.6820841E3,1.2134697E3,2.0647336E4,4.171574E3,1.3564075E4,2.4539421E3,1.1360561E4,3.3328674E3,4.7043467E3,2.8724365E3,4.4922373E3,3.3110422E3,2.4025264E3,3.4144429E3,5.648505E3,3.035781E3,4.2005457E2,2.6266226E3,1.5219608E3,2.5785723E3,1.5964395E2,3.1173096E3,4.4847842E2,3.1862183E3,1.8161117E3,2.489475E3,1.9433651E3,3.194982E2,4.9634483E1,3.326964E2,4.2571104E3,1.489494E3,6.012136E2,1.9474841E2,5.747821E2,4.7757363E3,1.5979369E2,6.8860954E1,1.6132231E3,2.1171031E2,1.00175946E3,2.0098168E4,5.491689E2,6.190021E2,3.5525723E3,3.239102E3,1.0324973E4,9.365841E1,2.3602837E3,1.0284078E4,1.0764819E3,2.0972969E3,1.2355704E3,2.4229258E3,2.281421E3,1.7794589E3,1.0929777E3,3.254171E3,1.2380664E3,2.40838E3,9.0266235E2,1.5484984E2,2.2476765E3,2.8487588E3,5.65684E2,2.5168162E3,3.1316887E3,1.683633E2,2.8674177E3,1.850385E2,2.3501605E2,2.3061035E3,3.2051904E2,8.4538214E2,6.765787E2,1.4586384E3,1.1199338E3,1.5855597E2,1.0879894E0,2.3704568E3,7.4685266E2,3.7300244E2,7.547598E1,1.0833892E3,2.102829E3,6.401649E2,1.1759468E3,1.0217731E3,1.467702E3,1.9401191E3,3.2458687E0],"tree_param":{"num_deleted":"0","num_feature":"52","num_nodes":"127","size_leaf_vector":"1"}},{"base_weights":[-3.0971912E-4,3.08743E-1,-6.803316E-1,-1.1412423E-1,6.366578E-1,-4.74278E-1,-9.7632104E-1,-4.9048513E-1,2.0932322E-2,2.69046E-1,8.371299E-1,-8.4160084E-1,-2.7922285E-1,-7.713065E-1,-1.1152056E0,-6.913437E-1,-3.2114857E-1,-3.018485E-1,1.2036249E-1,8.618394E-2,4.7043636E-1,6.9020396E-1,1.0276037E0,-1.060189E0,-6.928788E-1,-2.6743233E-2,-4.8254657E-1,-5.4530394E-1,-9.9674386E-1,-1.007744E0,-1.2362087E0,-6.013654E-1,-9.695805E-1,2.0636849E-1,-3.7190622E-1,-9.1309124E-1,-2.7351698E-1,-6.5648603E-1,1.571646E-1,-1.6615051E-1,2.6129168E-1,5.8347124E-1,2.3673987E-1,3.4599954E-1,7.934302E-1,8.436897E-1,1.1101327E0,-9.0440595E-1,-1.2177163E0,-4.9545342E-1,-8.070302E-1,2.2205766E-1,-2.2513193E-1,-3.8174245E-1,-9.133782E-1,-4.921219E-1,-1.3537526E0,-9.4547987E-1,-1.3316915E0,-1.1174437E0,-8.159615E-1,-1.1558765E0,-1.2855756E0,-2.3059709E-2,-4.721504E-2,-6.125624E-2,-4.215735E-2,1.852488E-2,-3.0487163E-2,-4.191534E-2,-1.6325628E-2,-1.7426347E-2,-5.532075E-2,-1.2523929E-2,-5.1449653E-2,-2.4374476E-2,-6.26094E-2,9.174963E-3,-4.0852185E-2,-2.284174E-3,-3.0721933E-2,2.0033702E-2,5.558168E-3,2.0468343E-2,3.4311E-2,2.1046316E-2,9.4348576E-4,4.175036E-2,1.37295155E-2,2.6875986E-2,4.3604385E-2,5.154255E-2,3.2108405E-3,4.218335E-2,5.816985E-2,-3.624422E-2,-5.9176873E-2,-5.5554718E-2,-6.47801E-2,-1.5433614E-2,-6.37434E-2,-3.2562755E-2,-4.7436036E-2,1.749221E-2,-5.627482E-2,-2.7131116E-2,-1.1932853E-3,-1.3843077E-2,-4.3273497E-2,-5.2568603E-2,-3.312996E-2,-4.1540917E-2,-1.6580246E-2,-3.9494243E-2,-6.8569385E-2,-4.133183E-2,-5.7354894E-2,-6.681534E-2,-5.15205E-3,-4.829227E-2,-6.018213E-2,-3.267521E-2,-4.7573175E-2,-5.2861024E-2,-6.343316E-2,-6.433048E-2,-1.5285521E-2],"categories":[],"categories_nodes":[],"categories_segments":[],"categories_sizes":[],"default_left":[0,0,0,0,0,0,0,0,0,0,0,0,0,0,0,0,0,0,0,0,0,0,0,0,0,0,0,0,0,0,0,0,0,0,0,0,0,0,0,0,0,0,0,0,0,0,0,0,0,0,0,0,0,0,0,0,0,0,0,0,0,0,0,0,0,0,0,0,0,0,0,0,0,0,0,0,0,0,0,0,0,0,0,0,0,0,0,0,0,0,0,0,0,0,0,0,0,0,0,0,0,0,0,0,0,0,0,0,0,0,0,0,0,0,0,0,0,0,0,0,0,0,0,0,0,0,0],"id":12,"left_children":[1,3,5,7,9,11,13,15,17,19,21,23,25,27,29,31,33,35,37,39,41,43,45,47,49,51,53,55,57,59,61,63,65,67,69,71,73,75,77,79,81,83,85,87,89,91,93,95,97,99,101,103,105,107,109,111,113,115,117,119,121,123,125,-1,-1,-1,-1,-1,-1,-1,-1,-1,-1,-1,-1,-1,-1,-1,-1,-1,-1,-1,-1,-1,-1,-1,-1,-1,-1,-1,-1,-1,-1,-1,-1,-1,-1,-1,-1,-1,-1,-1,-1,-1,-1,-1,-1,-1,-1,-1,-1,-1,-1,-1,-1,-1,-1,-1,-1,-1,-1,-1,-1,-1,-1,-1,-1],"loss_changes":[2.5312684E4,1.1482707E4,2.2948535E3,1.8384697E3,3.4370312E3,1.5896475E3,4.3892188E2,3.2465332E2,8.543245E2,6.0615247E2,8.439297E2,2.4945117E2,7.440995E2,3.17427E2,1.184541E2,1.0877783E2,1.3888971E2,1.083103E2,5.819128E2,3.8129718E2,2.067843E2,6.0522266E2,1.9851855E2,7.532056E1,1.02879395E2,3.1925858E2,3.4835413E2,1.334245E2,5.236792E1,1.0177637E2,1.5667969E1,1.5836072E2,3.340277E1,6.1264973E1,9.986029E1,2.987622E1,1.04042755E2,9.207352E1,4.9865317E2,1.9089606E2,1.0654999E2,9.415393E1,1.0253456E2,1.3712323E2,2.634082E2,5.943452E2,1.2771289E2,7.779651E1,1.139502E1,2.4440869E2,6.3439087E1,4.9452057E2,2.2993387E2,3.2995856E2,5.1963257E1,1.5890033E2,8.2525635E-1,6.403467E1,2.1992798E0,3.937622E1,3.855591E1,1.7088867E1,2.3115234E0,0E0,0E0,0E0,0E0,0E0,0E0,0E0,0E0,0E0,0E0,0E0,0E0,0E0,0E0,0E0,0E0,0E0,0E0,0E0,0E0,0E0,0E0,0E0,0E0,0E0,0E0,0E0,0E0,0E0,0E0,0E0,0E0,0E0,0E0,0E0,0E0,0E0,0E0,0E0,0E0,0E0,0E0,0E0,0E0,0E0,0E0,0E0,0E0,0E0,0E0,0E0,0E0,0E0,0E0,0E0,0E0,0E0,0E0,0E0,0E0,0E0,0E0,0E0,0E0],"parents":[2147483647,0,0,1,1,2,2,3,3,4,4,5,5,6,6,7,7,8,8,9,9,10,10,11,11,12,12,13,13,14,14,15,15,16,16,17,17,18,18,19,19,20,20,21,21,22,22,23,23,24,24,25,25,26,26,27,27,28,28,29,29,30,30,31,31,32,32,33,33,34,34,35,35,36,36,37,37,38,38,39,39,40,40,41,41,42,42,43,43,44,44,45,45,46,46,47,47,48,48,49,49,50,50,51,51,52,52,53,53,54,54,55,55,56,56,57,57,58,58,59,59,60,60,61,61,62,62],"right_children":[2,4,6,8,10,12,14,16,18,20,22,24,26,28,30,32,34,36,38,40,42,44,46,48,50,52,54,56,58,60,62,64,66,68,70,72,74,76,78,80,82,84,86,88,90,92,94,96,98,100,102,104,106,108,110,112,114,116,118,120,122,124,126,-1,-1,-1,-1,-1,-1,-1,-1,-1,-1,-1,-1,-1,-1,-1,-1,-1,-1,-1,-1,-1,-1,-1,-1,-1,-1,-1,-1,-1,-1,-1,-1,-1,-1,-1,-1,-1,-1,-1,-1,-1,-1,-1,-1,-1,-1,-1,-1,-1,-1,-1,-1,-1,-1,-1,